{"learner":{"attributes":{"scikit_learn":"{\"_estimator_type\": \"classifier\"}"},"feature_names":["AMT_INCOME_TOTAL","AGE_YEARS","EMPLOYED_YEARS","CODE_GENDER_M","FLAG_OWN_CAR_Y","NAME_INCOME_TYPE_Pensioner","NAME_INCOME_TYPE_State_servant","NAME_INCOME_TYPE_Student","NAME_INCOME_TYPE_Working","NAME_EDUCATION_TYPE_Higher_education","NAME_EDUCATION_TYPE_Incomplete_higher","NAME_EDUCATION_TYPE_Lower_secondary","NAME_EDUCATION_TYPE_Secondary_/_secondary_special","NAME_FAMILY_STATUS_Married","NAME_FAMILY_STATUS_Separated","NAME_FAMILY_STATUS_Single_/_not_married","NAME_FAMILY_STATUS_Widow"],"feature_types":["float","float","float","float","float","float","float","float","float","float","float","float","float","float","float","float","float"],"gradient_booster":{"model":{"cats":{"enc":[],"feature_segments":[],"sorted_idx":[]},"gbtree_model_param":{"num_parallel_tree":"1","num_trees":"200"},"iteration_indptr":[0,1,2,3,4,5,6,7,8,9,10,11,12,13,14,15,16,17,18,19,20,21,22,23,24,25,26,27,28,29,30,31,32,33,34,35,36,37,38,39,40,41,42,43,44,45,46,47,48,49,50,51,52,53,54,55,56,57,58,59,60,61,62,63,64,65,66,67,68,69,70,71,72,73,74,75,76,77,78,79,80,81,82,83,84,85,86,87,88,89,90,91,92,93,94,95,96,97,98,99,100,101,102,103,104,105,106,107,108,109,110,111,112,113,114,115,116,117,118,119,120,121,122,123,124,125,126,127,128,129,130,131,132,133,134,135,136,137,138,139,140,141,142,143,144,145,146,147,148,149,150,151,152,153,154,155,156,157,158,159,160,161,162,163,164,165,166,167,168,169,170,171,172,173,174,175,176,177,178,179,180,181,182,183,184,185,186,187,188,189,190,191,192,193,194,195,196,197,198,199,200],"tree_info":[0,0,0,0,0,0,0,0,0,0,0,0,0,0,0,0,0,0,0,0,0,0,0,0,0,0,0,0,0,0,0,0,0,0,0,0,0,0,0,0,0,0,0,0,0,0,0,0,0,0,0,0,0,0,0,0,0,0,0,0,0,0,0,0,0,0,0,0,0,0,0,0,0,0,0,0,0,0,0,0,0,0,0,0,0,0,0,0,0,0,0,0,0,0,0,0,0,0,0,0,0,0,0,0,0,0,0,0,0,0,0,0,0,0,0,0,0,0,0,0,0,0,0,0,0,0,0,0,0,0,0,0,0,0,0,0,0,0,0,0,0,0,0,0,0,0,0,0,0,0,0,0,0,0,0,0,0,0,0,0,0,0,0,0,0,0,0,0,0,0,0,0,0,0,0,0,0,0,0,0,0,0,0,0,0,0,0,0,0,0,0,0,0,0,0,0,0,0,0,0],"trees":[{"base_weights":[4.0013153E-2,1.19912155E-1,-6.571533E-1,-1.5035616E0,1.3667405E-1,-7.394088E-1,9.975296E-2,-9.706574E-2,-6.889561E-2,3.209622E-1,-2.7183834E-2,-5.961926E-1,-1.6504326E0,-9.181218E-2,7.8437366E-2,3.7935656E-2,1.00757545E-2,1.3693104E-3,-8.40713E-2,-2.5315419E-2,-9.67737E-2,-9.7366296E-2,-3.6718752E-2],"categories":[],"categories_nodes":[],"categories_segments":[],"categories_sizes":[],"default_left":[0,0,0,0,0,0,0,0,0,0,0,0,0,0,0,0,0,0,0,0,0,0,0],"id":0,"left_children":[1,3,5,7,9,11,-1,-1,13,15,17,19,21,-1,-1,-1,-1,-1,-1,-1,-1,-1,-1],"loss_changes":[7.983719E2,3.5011856E2,3.229795E2,8.244418E1,3.843589E2,1.8560791E2,0E0,0E0,9.4852974E1,3.130866E2,6.083366E2,1.4797882E2,5.125421E1,0E0,0E0,0E0,0E0,0E0,0E0,0E0,0E0,0E0,0E0],"parents":[2147483647,0,0,1,1,2,2,3,3,4,4,5,5,8,8,9,9,10,10,11,11,12,12],"right_children":[2,4,6,8,10,12,-1,-1,14,16,18,20,22,-1,-1,-1,-1,-1,-1,-1,-1,-1,-1],"split_conditions":[9.83941E-1,-1.1694396E0,2.2244997E0,1.8552593E0,-5.1361865E-1,9.3506783E-1,9.975296E-2,-9.706574E-2,1.2751697E0,-1.1483845E0,1.0479215E0,1.3662375E0,3.9790604E0,-9.181218E-2,7.8437366E-2,3.7935656E-2,1.00757545E-2,1.3693104E-3,-8.40713E-2,-2.5315419E-2,-9.67737E-2,-9.7366296E-2,-3.6718752E-2],"split_indices":[2,0,5,1,2,1,0,0,4,1,1,0,2,0,0,0,0,0,0,0,0,0,0],"split_type":[0,0,0,0,0,0,0,0,0,0,0,0,0,0,0,0,0,0,0,0,0,0,0],"sum_hessian":[1.4330266E4,1.285755E4,1.472716E3,1.3048734E2,1.27270625E4,1.4291147E3,4.3601215E1,9.97101E1,3.0777239E1,5.9896484E3,6.737414E3,1.2364023E3,1.9271243E2,1.47441E1,1.6033138E1,1.2828599E3,4.7067886E3,6.52321E3,2.1420384E2,1.1599329E3,7.64694E1,1.446921E2,4.8020336E1],"tree_param":{"num_deleted":"0","num_feature":"17","num_nodes":"23","size_leaf_vector":"1"}},{"base_weights":[3.798763E-2,1.1389771E-1,-6.251958E-1,-1.4346598E0,1.298262E-1,-7.035229E-1,9.4922E-2,-9.2662096E-2,-6.607089E-2,3.0485103E-1,-2.5843075E-2,-5.670028E-1,-1.5742149E0,-8.7843634E-2,7.474258E-2,1.0847902E-2,4.4002093E-2,1.300811E-3,-8.016776E-2,-2.4067145E-2,-9.239472E-2,-9.293722E-2,-3.4957793E-2],"categories":[],"categories_nodes":[],"categories_segments":[],"categories_sizes":[],"default_left":[0,0,0,0,0,0,0,0,0,0,0,0,0,0,0,0,0,0,0,0,0,0,0],"id":1,"left_children":[1,3,5,7,9,11,-1,-1,13,15,17,19,21,-1,-1,-1,-1,-1,-1,-1,-1,-1,-1],"loss_changes":[7.214647E2,3.1736496E2,2.9228888E2,7.492459E1,3.4681778E2,1.6889014E2,0E0,0E0,8.634135E1,3.0273547E2,5.512564E2,1.3475906E2,4.6763184E1,0E0,0E0,0E0,0E0,0E0,0E0,0E0,0E0,0E0,0E0],"parents":[2147483647,0,0,1,1,2,2,3,3,4,4,5,5,8,8,9,9,10,10,11,11,12,12],"right_children":[2,4,6,8,10,12,-1,-1,14,16,18,20,22,-1,-1,-1,-1,-1,-1,-1,-1,-1,-1],"split_conditions":[9.83941E-1,-1.1694396E0,2.2244997E0,1.8552593E0,-5.1361865E-1,9.3506783E-1,9.4922E-2,-9.2662096E-2,1.2751697E0,9.472996E-1,1.0479215E0,1.3662375E0,3.9790604E0,-8.7843634E-2,7.474258E-2,1.0847902E-2,4.4002093E-2,1.300811E-3,-8.016776E-2,-2.4067145E-2,-9.239472E-2,-9.293722E-2,-3.4957793E-2],"split_indices":[2,0,5,1,2,1,0,0,4,0,1,0,2,0,0,0,0,0,0,0,0,0,0],"split_type":[0,0,0,0,0,0,0,0,0,0,0,0,0,0,0,0,0,0,0,0,0,0,0],"sum_hessian":[1.4328766E4,1.2857845E4,1.4709214E3,1.3000267E2,1.2727842E4,1.4273417E3,4.3579758E1,9.928293E1,3.0719744E1,5.9909893E3,6.7368525E3,1.2353035E3,1.9203818E2,1.4686112E1,1.6033632E1,5.1980674E3,7.9292206E2,6.5233853E3,2.1346692E2,1.1591602E3,7.614331E1,1.4406924E2,4.796892E1],"tree_param":{"num_deleted":"0","num_feature":"17","num_nodes":"23","size_leaf_vector":"1"}},{"base_weights":[3.606875E-2,1.0819977E-1,-5.954046E-1,-1.374475E0,1.23335555E-1,-6.699984E-1,9.07421E-2,-8.883491E-2,-6.35956E-2,2.8959164E-1,-2.4574578E-2,-5.3952813E-1,-1.506595E0,-8.435153E-2,7.141906E-2,6.4329184E-3,2.9509965E-2,1.2357599E-3,-7.668952E-2,-2.2886625E-2,-8.8586256E-2,-8.9090735E-2,-3.3300545E-2],"categories":[],"categories_nodes":[],"categories_segments":[],"categories_sizes":[],"default_left":[0,0,0,0,0,0,0,0,0,0,0,0,0,0,0,0,0,0,0,0,0,0,0],"id":2,"left_children":[1,3,5,7,9,11,-1,-1,13,15,17,19,21,-1,-1,-1,-1,-1,-1,-1,-1,-1,-1],"loss_changes":[6.525428E2,2.887021E2,2.6526947E2,6.843541E1,3.1300385E2,1.547627E2,0E0,0E0,7.885641E1,2.898281E2,5.0116748E2,1.2362094E2,4.3170837E1,0E0,0E0,0E0,0E0,0E0,0E0,0E0,0E0,0E0,0E0],"parents":[2147483647,0,0,1,1,2,2,3,3,4,4,5,5,8,8,9,9,10,10,11,11,12,12],"right_children":[2,4,6,8,10,12,-1,-1,14,16,18,20,22,-1,-1,-1,-1,-1,-1,-1,-1,-1,-1],"split_conditions":[9.83941E-1,-1.1694396E0,2.2244997E0,1.8552593E0,-5.1361865E-1,9.3506783E-1,9.07421E-2,-8.883491E-2,1.2751697E0,-7.143225E-1,1.0479215E0,1.3662375E0,3.9790604E0,-8.435153E-2,7.141906E-2,6.4329184E-3,2.9509965E-2,1.2357599E-3,-7.668952E-2,-2.2886625E-2,-8.8586256E-2,-8.9090735E-2,-3.3300545E-2],"split_indices":[2,0,5,1,2,1,0,0,4,2,1,0,2,0,0,0,0,0,0,0,0,0,0],"split_type":[0,0,0,0,0,0,0,0,0,0,0,0,0,0,0,0,0,0,0,0,0,0,0],"sum_hessian":[1.4323813E4,1.2856131E4,1.4676826E3,1.2900716E2,1.2727124E4,1.4243239E3,4.335883E1,9.844535E1,3.0561798E1,5.9915063E3,6.735617E3,1.2335864E3,1.9073744E2,1.4573496E1,1.5988302E1,3.903277E3,2.0882295E3,6.523547E3,2.1207019E2,1.1580822E3,7.550427E1,1.4284737E2,4.7890068E1],"tree_param":{"num_deleted":"0","num_feature":"17","num_nodes":"23","size_leaf_vector":"1"}},{"base_weights":[3.4248516E-2,1.0279784E-1,-5.675296E-1,-1.3214569E0,1.17179975E-1,-6.3857377E-1,8.709222E-2,-8.54806E-2,-6.1413474E-2,2.717098E-1,-2.6498998E-2,-5.1361537E-1,-1.4460891E0,-8.1255466E-2,6.840721E-2,3.369799E-2,7.5334585E-3,6.833641E-4,-8.71719E-2,-2.1768965E-2,-8.524617E-2,-8.572181E-2,-3.1737495E-2],"categories":[],"categories_nodes":[],"categories_segments":[],"categories_sizes":[],"default_left":[0,0,0,0,0,0,0,0,0,0,0,0,0,0,0,0,0,0,0,0,0,0,0],"id":3,"left_children":[1,3,5,7,9,11,-1,-1,13,15,17,19,21,-1,-1,-1,-1,-1,-1,-1,-1,-1,-1],"loss_changes":[5.906481E2,2.634454E2,2.4134424E2,6.2782257E1,2.825587E2,1.4267041E2,0E0,0E0,7.223157E1,2.9843555E2,4.548657E2,1.1411667E2,4.0258636E1,0E0,0E0,0E0,0E0,0E0,0E0,0E0,0E0,0E0,0E0],"parents":[2147483647,0,0,1,1,2,2,3,3,4,4,5,5,8,8,9,9,10,10,11,11,12,12],"right_children":[2,4,6,8,10,12,-1,-1,14,16,18,20,22,-1,-1,-1,-1,-1,-1,-1,-1,-1,-1],"split_conditions":[9.83941E-1,-1.1694396E0,2.2244997E0,1.8552593E0,-4.9817988E-1,9.3506783E-1,8.709222E-2,-8.54806E-2,1.2751697E0,-7.505016E-1,1.1607752E0,1.3662375E0,3.9790604E0,-8.1255466E-2,6.840721E-2,3.369799E-2,7.5334585E-3,6.833641E-4,-8.71719E-2,-2.1768965E-2,-8.524617E-2,-8.572181E-2,-3.1737495E-2],"split_indices":[2,0,5,1,2,1,0,0,4,0,1,0,2,0,0,0,0,0,0,0,0,0,0],"split_type":[0,0,0,0,0,0,0,0,0,0,0,0,0,0,0,0,0,0,0,0,0,0,0],"sum_hessian":[1.4315811E4,1.2852585E4,1.4632255E3,1.2757946E2,1.2725005E4,1.4202571E3,4.296844E1,9.72614E1,3.031806E1,6.1305625E3,6.594443E3,1.2313489E3,1.8890817E2,1.441437E1,1.590369E1,1.4169838E3,4.7135786E3,6.4446675E3,1.497753E2,1.1567479E3,7.460097E1,1.4112018E2,4.778799E1],"tree_param":{"num_deleted":"0","num_feature":"17","num_nodes":"23","size_leaf_vector":"1"}},{"base_weights":[3.251893E-2,9.76674E-2,-5.4136205E-1,6.2710956E-2,6.652035E-1,-6.090299E-1,8.387963E-2,-8.2278274E-2,7.297239E-2,7.962519E-1,-9.318841E-2,-4.8913306E-1,-1.3915302E0,-1.3223832E-3,1.1399563E-2,4.4324063E-2,-9.312518E-2,-2.070985E-2,-8.229537E-2,-8.274934E-2,-3.0260459E-2],"categories":[],"categories_nodes":[],"categories_segments":[],"categories_sizes":[],"default_left":[0,0,0,0,0,0,0,0,0,0,0,0,0,0,0,0,0,0,0,0,0],"id":4,"left_children":[1,3,5,7,9,11,-1,-1,13,15,-1,17,19,-1,-1,-1,-1,-1,-1,-1,-1],"loss_changes":[5.3495856E2,2.5487689E2,2.200552E2,2.123117E2,2.4852634E2,1.3219678E2,0E0,0E0,1.8546779E2,1.7183151E2,0E0,1.0591165E2,3.7869324E1,0E0,0E0,0E0,0E0,0E0,0E0,0E0,0E0],"parents":[2147483647,0,0,1,1,2,2,3,3,4,4,5,5,8,8,9,9,11,11,12,12],"right_children":[2,4,6,8,10,12,-1,-1,14,16,-1,18,20,-1,-1,-1,-1,-1,-1,-1,-1],"split_conditions":[9.83941E-1,4.850672E0,2.2244997E0,-1.2796863E0,2.673793E-2,9.3506783E-1,8.387963E-2,-8.2278274E-2,1.422179E0,1.641232E0,-9.318841E-2,1.3662375E0,3.9790604E0,-1.3223832E-3,1.1399563E-2,4.4324063E-2,-9.312518E-2,-2.070985E-2,-8.229537E-2,-8.274934E-2,-3.0260459E-2],"split_indices":[2,16,5,0,2,1,0,0,3,9,0,0,2,0,0,0,0,0,0,0,0],"split_type":[0,0,0,0,0,0,0,0,0,0,0,0,0,0,0,0,0,0,0,0,0],"sum_hessian":[1.4306085E4,1.2848338E4,1.4577471E3,1.2103928E4,7.444107E2,1.4153123E3,4.2434925E1,7.132128E1,1.2032606E4,7.08388E2,3.6022697E1,1.2286763E3,1.8663599E2,7.3314634E3,4.701143E3,6.857815E2,2.2606556E1,1.1552002E3,7.347603E1,1.3896956E2,4.7666428E1],"tree_param":{"num_deleted":"0","num_feature":"17","num_nodes":"21","size_leaf_vector":"1"}},{"base_weights":[3.0871382E-2,9.277461E-2,-5.1672554E-1,5.957048E-2,6.3224727E-1,-5.8118045E-1,8.103194E-2,-1.2183515E0,7.228262E-2,7.56758E-1,-8.9235894E-2,-4.6596605E-1,-1.3419856E0,-8.062335E-2,3.981835E-3,1.4790013E-2,4.4427076E-4,4.2126555E-2,-8.911717E-2,-1.9705378E-2,-7.9671584E-2,-8.010959E-2,-2.8862298E-2],"categories":[],"categories_nodes":[],"categories_segments":[],"categories_sizes":[],"default_left":[0,0,0,0,0,0,0,0,0,0,0,0,0,0,0,0,0,0,0,0,0,0,0],"id":5,"left_children":[1,3,5,7,9,11,-1,13,15,17,-1,19,21,-1,-1,-1,-1,-1,-1,-1,-1,-1,-1],"loss_changes":[4.8475784E2,2.300986E2,2.0103262E2,1.9671631E2,2.2549225E2,1.2302536E2,0E0,6.1143417E1,1.698375E2,1.5591724E2,0E0,9.875226E1,3.588745E1,0E0,0E0,0E0,0E0,0E0,0E0,0E0,0E0,0E0,0E0],"parents":[2147483647,0,0,1,1,2,2,3,3,4,4,5,5,7,7,8,8,9,9,11,11,12,12],"right_children":[2,4,6,8,10,12,-1,14,16,18,-1,20,22,-1,-1,-1,-1,-1,-1,-1,-1,-1,-1],"split_conditions":[9.83941E-1,4.850672E0,2.2244997E0,-1.1694396E0,2.673793E-2,9.3506783E-1,8.103194E-2,1.8552593E0,-1.1223413E0,1.641232E0,-8.9235894E-2,1.3662375E0,3.9790604E0,-8.062335E-2,3.981835E-3,1.4790013E-2,4.4427076E-4,4.2126555E-2,-8.911717E-2,-1.9705378E-2,-7.9671584E-2,-8.010959E-2,-2.8862298E-2],"split_indices":[2,16,5,0,2,1,0,1,1,9,0,0,2,0,0,0,0,0,0,0,0,0,0],"split_type":[0,0,0,0,0,0,0,0,0,0,0,0,0,0,0,0,0,0,0,0,0,0,0],"sum_hessian":[1.4298065E4,1.2846645E4,1.4514214E3,1.2102834E4,7.438097E2,1.40964E3,4.178138E1,1.1827308E2,1.1984562E4,7.080226E2,3.578712E1,1.225644E3,1.8399593E2,9.053971E1,2.7733362E1,2.6473193E3,9.337242E3,6.855329E2,2.2489725E1,1.1534772E3,7.216682E1,1.3646724E2,4.752869E1],"tree_param":{"num_deleted":"0","num_feature":"17","num_nodes":"23","size_leaf_vector":"1"}},{"base_weights":[2.9310385E-2,8.813861E-2,-4.934705E-1,2.2215547E-1,-3.799877E-2,-5.548669E-1,7.849189E-2,1.3656327E-1,7.8894544E-1,-3.2365049E-4,-8.395884E-2,-4.4401377E-1,-1.296702E0,2.6509955E-3,4.0064253E-2,6.081708E-2,-2.7858524E-2,-3.912058E-2,4.212636E-3,-1.8752037E-2,-7.732516E-2,-7.775181E-2,-2.753681E-2],"categories":[],"categories_nodes":[],"categories_segments":[],"categories_sizes":[],"default_left":[0,0,0,0,0,0,0,0,0,0,0,0,0,0,0,0,0,0,0,0,0,0,0],"id":6,"left_children":[1,3,5,7,9,11,-1,13,15,17,-1,19,21,-1,-1,-1,-1,-1,-1,-1,-1,-1,-1],"loss_changes":[4.3947723E2,2.1713272E2,1.83974E2,3.0201575E2,4.0916586E2,1.14912445E2,0E0,3.0049402E2,4.706391E2,4.280271E2,0E0,9.244362E1,3.4226837E1,0E0,0E0,0E0,0E0,0E0,0E0,0E0,0E0,0E0,0E0],"parents":[2147483647,0,0,1,1,2,2,3,3,4,4,5,5,7,7,8,8,9,9,11,11,12,12],"right_children":[2,4,6,8,10,12,-1,14,16,18,-1,20,22,-1,-1,-1,-1,-1,-1,-1,-1,-1,-1],"split_conditions":[9.83941E-1,-4.9817988E-1,2.2244997E0,9.472996E-1,1.1607752E0,9.3506783E-1,7.849189E-2,4.850672E0,6.696271E-2,-1.2786002E0,-8.395884E-2,1.3662375E0,3.9790604E0,2.6509955E-3,4.0064253E-2,6.081708E-2,-2.7858524E-2,-3.912058E-2,4.212636E-3,-1.8752037E-2,-7.732516E-2,-7.775181E-2,-2.753681E-2],"split_indices":[2,2,5,0,1,1,0,16,1,1,0,0,2,0,0,0,0,0,0,0,0,0,0],"split_type":[0,0,0,0,0,0,0,0,0,0,0,0,0,0,0,0,0,0,0,0,0,0,0],"sum_hessian":[1.4287543E4,1.2843143E4,1.4444E3,6.226708E3,6.616435E3,1.403372E3,4.1028084E1,5.410845E3,8.158626E2,6.4689336E3,1.4750157E2,1.2223182E3,1.810537E2,4.807687E3,6.031585E2,6.193222E2,1.965404E2,6.3048755E2,5.838446E3,1.1516122E3,7.070607E1,1.3367601E2,4.7377686E1],"tree_param":{"num_deleted":"0","num_feature":"17","num_nodes":"23","size_leaf_vector":"1"}},{"base_weights":[2.7845062E-2,8.376248E-2,-4.7146896E-1,-1.2077136E0,9.63415E-2,-5.29953E-1,7.621353E-2,-7.8665465E-2,-5.8701377E-2,2.3614164E-1,-2.8018067E-2,-4.2318746E-1,-1.2550632E0,-7.829168E-2,6.542032E-2,3.1921934E-2,6.3255513E-3,7.4081036E-4,-6.91035E-2,-1.4602065E-2,-4.890834E-2,-3.0997774E-2,-7.776858E-2],"categories":[],"categories_nodes":[],"categories_segments":[],"categories_sizes":[],"default_left":[0,0,0,0,0,0,0,0,0,0,0,0,0,0,0,0,0,0,0,0,0,0,0],"id":7,"left_children":[1,3,5,7,9,11,-1,-1,13,15,17,19,21,-1,-1,-1,-1,-1,-1,-1,-1,-1,-1],"loss_changes":[3.9861057E2,2.0868375E2,1.6862823E2,5.1961E1,2.2107272E2,1.0766843E2,0E0,0E0,6.581702E1,2.6393768E2,3.9037646E2,8.84924E1,3.3150665E1,0E0,0E0,0E0,0E0,0E0,0E0,0E0,0E0,0E0,0E0],"parents":[2147483647,0,0,1,1,2,2,3,3,4,4,5,5,8,8,9,9,10,10,11,11,12,12],"right_children":[2,4,6,8,10,12,-1,-1,14,16,18,20,22,-1,-1,-1,-1,-1,-1,-1,-1,-1,-1],"split_conditions":[9.83941E-1,-1.1694396E0,2.2244997E0,1.8552593E0,-5.1361865E-1,9.3506783E-1,7.621353E-2,-7.8665465E-2,1.2751697E0,-1.1483845E0,1.0479215E0,4.181148E-1,-4.6826968E-1,-7.829168E-2,6.542032E-2,3.1921934E-2,6.3255513E-3,7.4081036E-4,-6.91035E-2,-1.4602065E-2,-4.890834E-2,-3.0997774E-2,-7.776858E-2],"split_indices":[2,0,5,1,2,1,0,0,4,1,1,0,0,0,0,0,0,0,0,0,0,0,0],"split_type":[0,0,0,0,0,0,0,0,0,0,0,0,0,0,0,0,0,0,0,0,0,0,0],"sum_hessian":[1.4274288E4,1.2837471E4,1.4368167E3,1.2291478E2,1.2714557E4,1.3966238E3,4.019285E1,9.296551E1,2.9949276E1,5.985261E3,6.729295E3,1.2187571E3,1.7786674E2,1.417598E1,1.5773297E1,1.2807262E3,4.704535E3,6.523906E3,2.0538911E2,9.8703815E2,2.3171895E2,5.8086597E1,1.1978015E2],"tree_param":{"num_deleted":"0","num_feature":"17","num_nodes":"23","size_leaf_vector":"1"}},{"base_weights":[2.644592E-2,7.960199E-2,-4.503871E-1,-1.1712631E0,9.1556184E-2,-5.060674E-1,7.4159555E-2,-7.64435E-2,-5.7024308E-2,2.24442E-1,-2.6654212E-2,-4.3516564E-1,-7.7224225E-2,-7.5834475E-2,6.29164E-2,3.6911815E-3,2.5309762E-2,-2.6835846E-3,1.003676E-1,-1.5375345E-2,-4.8813358E-2],"categories":[],"categories_nodes":[],"categories_segments":[],"categories_sizes":[],"default_left":[0,0,0,0,0,0,0,0,0,0,0,0,0,0,0,0,0,0,0,0,0],"id":8,"left_children":[1,3,5,7,9,11,-1,-1,13,15,17,19,-1,-1,-1,-1,-1,-1,-1,-1,-1],"loss_changes":[3.6147675E2,1.9196399E2,1.5474777E2,4.8337723E1,1.9966162E2,1.0174716E2,0E0,0E0,6.0595085E1,2.5389453E2,3.6980017E2,8.9745255E1,0E0,0E0,0E0,0E0,0E0,0E0,0E0,0E0,0E0],"parents":[2147483647,0,0,1,1,2,2,3,3,4,4,5,5,8,8,9,9,10,10,11,11],"right_children":[2,4,6,8,10,12,-1,-1,14,16,18,20,-1,-1,-1,-1,-1,-1,-1,-1,-1],"split_conditions":[9.83941E-1,-1.1694396E0,2.2244997E0,1.8552593E0,-5.1361865E-1,1.1607752E0,7.4159555E-2,-7.64435E-2,1.2751697E0,-7.143225E-1,2.2244997E0,4.181148E-1,-7.7224225E-2,-7.5834475E-2,6.29164E-2,3.6911815E-3,2.5309762E-2,-2.6835846E-3,1.003676E-1,-1.5375345E-2,-4.8813358E-2],"split_indices":[2,0,5,1,2,1,0,0,4,2,5,0,0,0,0,0,0,0,0,0,0],"split_type":[0,0,0,0,0,0,0,0,0,0,0,0,0,0,0,0,0,0,0,0,0],"sum_hessian":[1.4258954E4,1.282958E4,1.4293741E3,1.20530304E2,1.270905E4,1.3900829E3,3.9291245E1,9.096395E1,2.9566349E1,5.9827085E3,6.726341E3,1.3025646E3,8.7518295E1,1.3941831E1,1.5624517E1,3.8994307E3,2.083278E3,6.639128E3,8.721318E1,1.0551887E3,2.473759E2],"tree_param":{"num_deleted":"0","num_feature":"17","num_nodes":"21","size_leaf_vector":"1"}},{"base_weights":[2.5133051E-2,7.565546E-2,-4.3021917E-1,4.5664106E-2,5.648609E-1,-4.8321033E-1,7.2299354E-2,2.6689833E-2,8.048065E-1,6.80354E-1,-8.5230194E-2,-3.8281253E-1,-1.183857E0,1.2822658E-2,-1.992103E-3,5.113938E-2,-8.974588E-2,-9.866824E-2,3.8008753E-2,-1.5944993E-2,-7.276773E-2,-7.2808005E-2,-2.1594627E-2],"categories":[],"categories_nodes":[],"categories_segments":[],"categories_sizes":[],"default_left":[0,0,0,0,0,0,0,0,0,0,0,0,0,0,0,0,0,0,0,0,0,0,0],"id":9,"left_children":[1,3,5,7,9,11,-1,13,15,17,-1,19,21,-1,-1,-1,-1,-1,-1,-1,-1,-1,-1],"loss_changes":[3.277839E2,1.8813693E2,1.4217505E2,1.7405215E2,1.9531026E2,9.694748E1,0E0,1.8025883E2,1.6881433E2,1.5095627E2,0E0,8.265715E1,3.4808273E1,0E0,0E0,0E0,0E0,0E0,0E0,0E0,0E0,0E0,0E0],"parents":[2147483647,0,0,1,1,2,2,3,3,4,4,5,5,7,7,8,8,9,9,11,11,12,12],"right_children":[2,4,6,8,10,12,-1,14,16,18,-1,20,22,-1,-1,-1,-1,-1,-1,-1,-1,-1,-1],"split_conditions":[9.83941E-1,4.850672E0,2.2244997E0,8.758697E-1,2.673793E-2,9.3506783E-1,7.2299354E-2,-1.1223413E0,4.5761E-1,-5.457201E-2,-8.5230194E-2,1.3662375E0,3.9790604E0,1.2822658E-2,-1.992103E-3,5.113938E-2,-8.974588E-2,-9.866824E-2,3.8008753E-2,-1.5944993E-2,-7.276773E-2,-7.2808005E-2,-2.1594627E-2],"split_indices":[2,16,5,2,2,1,0,1,1,1,0,0,2,0,0,0,0,0,0,0,0,0,0],"split_type":[0,0,0,0,0,0,0,0,0,0,0,0,0,0,0,0,0,0,0,0,0,0,0],"sum_hessian":[1.4245657E4,1.2823674E4,1.4219832E3,1.2083945E4,7.3972815E2,1.3836461E3,3.8336964E1,1.179029E4,2.9365552E2,7.0457263E2,3.5155518E1,1.2115813E3,1.7206487E2,2.646821E3,9.143469E3,2.7149762E2,2.2157892E1,1.988124E1,6.846914E2,1.144668E3,6.69133E1,1.2563363E2,4.6431232E1],"tree_param":{"num_deleted":"0","num_feature":"17","num_nodes":"23","size_leaf_vector":"1"}},{"base_weights":[2.3864977E-2,7.187862E-2,-4.1137952E-1,-1.1390408E0,8.3214566E-2,-4.6185303E-1,7.0607536E-2,-7.4484706E-2,-5.6445256E-2,2.0580192E-1,-3.0650854E-2,-3.9491394E-1,-7.391044E-2,-7.376805E-2,6.067521E-2,3.0031947E-2,4.348004E-3,-9.629705E-2,4.4534154E-5,-1.6655289E-2,-7.11262E-2],"categories":[],"categories_nodes":[],"categories_segments":[],"categories_sizes":[],"default_left":[0,0,0,0,0,0,0,0,0,0,0,0,0,0,0,0,0,0,0,0,0],"id":10,"left_children":[1,3,5,7,9,11,-1,-1,13,15,17,19,-1,-1,-1,-1,-1,-1,-1,-1,-1],"loss_changes":[2.9750244E2,1.760918E2,1.3083603E2,4.508287E1,1.7732526E2,9.310477E1,0E0,0E0,5.6116966E1,2.870002E2,3.9376453E2,8.167331E1,0E0,0E0,0E0,0E0,0E0,0E0,0E0,0E0,0E0],"parents":[2147483647,0,0,1,1,2,2,3,3,4,4,5,5,8,8,9,9,10,10,11,11],"right_children":[2,4,6,8,10,12,-1,-1,14,16,18,20,-1,-1,-1,-1,-1,-1,-1,-1,-1],"split_conditions":[9.83941E-1,-1.1694396E0,2.2244997E0,1.8552593E0,-4.9817988E-1,1.1607752E0,7.0607536E-2,-7.4484706E-2,1.2751697E0,-7.505016E-1,-4.6730238E-1,1.3662375E0,-7.391044E-2,-7.376805E-2,6.067521E-2,3.0031947E-2,4.348004E-3,-9.629705E-2,4.4534154E-5,-1.6655289E-2,-7.11262E-2],"split_indices":[2,0,5,1,2,1,0,0,4,0,2,0,0,0,0,0,0,0,0,0,0],"split_type":[0,0,0,0,0,0,0,0,0,0,0,0,0,0,0,0,0,0,0,0,0],"sum_hessian":[1.4233735E4,1.2820309E4,1.413427E3,1.1798076E2,1.2702328E4,1.3760851E3,3.7341946E1,8.883199E1,2.9148767E1,6.116502E3,6.5858257E3,1.2923566E3,8.372848E1,1.3690553E1,1.5458216E1,1.4141417E3,4.7023604E3,1.0682441E2,6.479001E3,1.2202838E3,7.207285E1],"tree_param":{"num_deleted":"0","num_feature":"17","num_nodes":"21","size_leaf_vector":"1"}},{"base_weights":[2.2661239E-2,6.829733E-2,-3.9322722E-1,4.0106796E-2,5.298312E-1,-4.4127423E-1,6.906292E-2,-5.5291392E-2,1.8986191E-1,6.3939506E-1,-8.224439E-2,-3.7673298E-1,-7.2175406E-2,-1.0070469E-1,-1.3656473E-3,1.2748852E-2,-3.0596927E-2,3.5884593E-2,-9.773279E-2,-1.2941295E-2,-4.443849E-2],"categories":[],"categories_nodes":[],"categories_segments":[],"categories_sizes":[],"default_left":[0,0,0,0,0,0,0,0,0,0,0,0,0,0,0,0,0,0,0,0,0],"id":11,"left_children":[1,3,5,7,9,11,-1,13,15,17,-1,19,-1,-1,-1,-1,-1,-1,-1,-1,-1],"loss_changes":[2.6993152E2,1.6671991E2,1.2051059E2,1.7257384E2,1.7680751E2,8.807547E1,0E0,4.0436298E2,2.4556941E2,1.4418045E2,0E0,7.755844E1,0E0,0E0,0E0,0E0,0E0,0E0,0E0,0E0,0E0],"parents":[2147483647,0,0,1,1,2,2,3,3,4,4,5,5,7,7,8,8,9,9,11,11],"right_children":[2,4,6,8,10,12,-1,14,16,18,-1,20,-1,-1,-1,-1,-1,-1,-1,-1,-1],"split_conditions":[9.83941E-1,4.850672E0,2.2244997E0,1.422179E0,2.673793E-2,1.1607752E0,6.906292E-2,-1.5303508E0,1.0045162E0,6.165591E-1,-8.224439E-2,4.181148E-1,-7.2175406E-2,-1.0070469E-1,-1.3656473E-3,1.2748852E-2,-3.0596927E-2,3.5884593E-2,-9.773279E-2,-1.2941295E-2,-4.443849E-2],"split_indices":[2,16,5,3,2,1,0,1,1,0,0,0,0,0,0,0,0,0,0,0,0],"split_type":[0,0,0,0,0,0,0,0,0,0,0,0,0,0,0,0,0,0,0,0,0],"sum_hessian":[1.4219835E4,1.2814515E4,1.4053207E3,1.2077883E4,7.366312E2,1.3690042E3,3.631662E1,7.378319E3,4.6995645E3,7.0197144E2,3.4659817E1,1.2874703E3,8.153383E1,1.0290404E2,7.2754146E3,4.347205E3,3.523595E2,6.8210657E2,1.9864838E1,1.0477172E3,2.397531E2],"tree_param":{"num_deleted":"0","num_feature":"17","num_nodes":"21","size_leaf_vector":"1"}},{"base_weights":[2.1516606E-2,1.7360033E-1,-9.6378945E-2,9.263894E-2,7.109565E-1,-5.582968E-2,-7.592892E-2,4.700346E-1,-5.3482737E-2,1.2788428E0,-2.0176223E-1,-8.5026585E-2,1.7576996E0,4.6443284E-2,1.1609928E-3,-9.449469E-3,2.4045039E-2,6.559891E-2,-9.148689E-2,-5.2067887E-2,4.326328E-2,-4.0746827E-2,-1.0597588E-3,9.521874E-2,6.7647606E-2],"categories":[],"categories_nodes":[],"categories_segments":[],"categories_sizes":[],"default_left":[0,0,0,0,0,0,0,0,0,0,0,0,0,0,0,0,0,0,0,0,0,0,0,0,0],"id":12,"left_children":[1,3,5,7,9,11,-1,13,15,17,19,21,23,-1,-1,-1,-1,-1,-1,-1,-1,-1,-1,-1,-1],"loss_changes":[2.547738E2,2.6988098E2,4.6152692E2,2.9746075E2,4.212974E2,4.1228818E2,0E0,3.086344E2,2.8170932E2,5.399402E1,2.8079575E2,3.5692963E2,4.747711E0,0E0,0E0,0E0,0E0,0E0,0E0,0E0,0E0,0E0,0E0,0E0,0E0],"parents":[2147483647,0,0,1,1,2,2,3,3,4,4,5,5,7,7,8,8,9,9,10,10,11,11,12,12],"right_children":[2,4,6,8,10,12,-1,14,16,18,20,22,24,-1,-1,-1,-1,-1,-1,-1,-1,-1,-1,-1,-1],"split_conditions":[-4.9817988E-1,9.472996E-1,1.1607752E0,-7.505016E-1,-5.6675404E-1,2.2244997E0,-7.592892E-2,6.7473453E-1,-6.062512E-1,4.955897E0,2.534854E0,-1.2786002E0,6.442883E-1,4.6443284E-2,1.1609928E-3,-9.449469E-3,2.4045039E-2,6.559891E-2,-9.148689E-2,-5.2067887E-2,4.326328E-2,-4.0746827E-2,-1.0597588E-3,9.521874E-2,6.7647606E-2],"split_indices":[2,0,1,0,1,5,0,13,2,10,0,1,2,0,0,0,0,0,0,0,0,0,0,0,0],"split_type":[0,0,0,0,0,0,0,0,0,0,0,0,0,0,0,0,0,0,0,0,0,0,0,0,0],"sum_hessian":[1.4207431E4,6.2039473E3,8.0034834E3,5.3926323E3,8.113148E2,7.7826274E3,2.2085634E2,1.5045472E3,3.8880852E3,4.998876E2,3.1142722E2,7.6602544E3,1.2237311E2,7.4176E2,7.627873E2,3.1021116E3,7.859735E2,4.951872E2,4.7004194E0,1.7430142E2,1.3712578E2,6.150791E2,7.045175E3,8.710303E1,3.5270073E1],"tree_param":{"num_deleted":"0","num_feature":"17","num_nodes":"25","size_leaf_vector":"1"}},{"base_weights":[2.0468626E-2,6.336821E-2,-3.732962E-1,-1.1115109E0,7.413547E-2,-4.1702795E-1,6.634643E-2,-7.2784446E-2,-5.9558403E-2,4.7000624E-2,5.2006805E-1,4.4635743E-1,-4.9014905E-1,-7.215976E-2,5.859309E-2,1.446796E-3,3.8140293E-2,3.127041E-2,-7.937921E-2,-8.2080476E-2,4.295498E-2,-8.494829E-2,-2.1714283E-2],"categories":[],"categories_nodes":[],"categories_segments":[],"categories_sizes":[],"default_left":[0,0,0,0,0,0,0,0,0,0,0,0,0,0,0,0,0,0,0,0,0,0,0],"id":13,"left_children":[1,3,5,7,9,11,-1,-1,13,15,17,19,21,-1,-1,-1,-1,-1,-1,-1,-1,-1,-1],"loss_changes":[2.3978947E2,1.6200731E2,1.04246735E2,4.20226E1,1.5346628E2,8.610213E1,0E0,0E0,5.2319965E1,1.546092E2,1.6251173E2,9.3398186E1,8.398645E1,0E0,0E0,0E0,0E0,0E0,0E0,0E0,0E0,0E0,0E0],"parents":[2147483647,0,0,1,1,2,2,3,3,4,4,5,5,8,8,9,9,10,10,11,11,12,12],"right_children":[2,4,6,8,10,12,-1,-1,14,16,18,20,22,-1,-1,-1,-1,-1,-1,-1,-1,-1,-1],"split_conditions":[9.83941E-1,-1.1694396E0,2.2244997E0,1.8552593E0,4.850672E0,-7.664182E-1,6.634643E-2,-7.2784446E-2,1.2751697E0,8.758697E-1,2.673793E-2,1.1074511E0,-5.927972E-1,-7.215976E-2,5.859309E-2,1.446796E-3,3.8140293E-2,3.127041E-2,-7.937921E-2,-8.2080476E-2,4.295498E-2,-8.494829E-2,-2.1714283E-2],"split_indices":[2,0,5,1,16,1,0,0,4,2,2,2,1,0,0,0,0,0,0,0,0,0,0],"split_type":[0,0,0,0,0,0,0,0,0,0,0,0,0,0,0,0,0,0,0,0,0,0,0],"sum_hessian":[1.4192754E4,1.279916E4,1.3935939E3,1.1530513E2,1.2683855E4,1.3593837E3,3.4210197E1,8.659061E1,2.8714523E1,1.1957359E4,7.2649585E2,1.05740234E2,1.2536434E3,1.3440576E1,1.5273949E1,1.1664035E4,2.9332367E2,6.9258386E2,3.3911964E1,1.6961025E1,8.877921E1,5.4076653E1,1.1995668E3],"tree_param":{"num_deleted":"0","num_feature":"17","num_nodes":"23","size_leaf_vector":"1"}},{"base_weights":[1.9439667E-2,1.6170733E-1,-9.087198E-2,8.4339984E-2,6.7697E-1,-5.235192E-2,-7.395875E-2,4.464544E-1,-5.5412628E-2,1.1907222E0,-2.4851368E-1,-7.980696E-2,1.68875E0,4.3986976E-2,1.2747623E-3,-9.246382E-3,2.2799734E-2,-8.989245E-2,6.1226845E-2,-6.0769934E-2,4.140272E-2,-3.883024E-2,-9.4549573E-4,9.099427E-2,6.514642E-2],"categories":[],"categories_nodes":[],"categories_segments":[],"categories_sizes":[],"default_left":[0,0,0,0,0,0,0,0,0,0,0,0,0,0,0,0,0,0,0,0,0,0,0,0,0],"id":14,"left_children":[1,3,5,7,9,11,-1,13,15,17,19,21,23,-1,-1,-1,-1,-1,-1,-1,-1,-1,-1,-1,-1],"loss_changes":[2.2256886E2,2.4685553E2,4.271141E2,2.7260843E2,3.8469046E2,3.7172958E2,0E0,2.7357446E2,2.575609E2,5.475537E1,3.022626E2,3.2476263E2,3.736786E0,0E0,0E0,0E0,0E0,0E0,0E0,0E0,0E0,0E0,0E0,0E0,0E0],"parents":[2147483647,0,0,1,1,2,2,3,3,4,4,5,5,7,7,8,8,9,9,10,10,11,11,12,12],"right_children":[2,4,6,8,10,12,-1,14,16,18,20,22,24,-1,-1,-1,-1,-1,-1,-1,-1,-1,-1,-1,-1],"split_conditions":[-4.9817988E-1,9.472996E-1,1.1607752E0,-7.505016E-1,-4.5390037E-1,2.2244997E0,-7.395875E-2,6.7473453E-1,-6.062512E-1,-8.687101E-1,2.534854E0,-1.2786002E0,6.442883E-1,4.3986976E-2,1.2747623E-3,-9.246382E-3,2.2799734E-2,-8.989245E-2,6.1226845E-2,-6.0769934E-2,4.140272E-2,-3.883024E-2,-9.4549573E-4,9.099427E-2,6.514642E-2],"split_indices":[2,0,1,0,1,5,0,13,2,2,0,1,2,0,0,0,0,0,0,0,0,0,0,0,0],"split_type":[0,0,0,0,0,0,0,0,0,0,0,0,0,0,0,0,0,0,0,0,0,0,0,0,0],"sum_hessian":[1.4180043E4,6.1927974E3,7.987245E3,5.3853447E3,8.074527E2,7.7726226E3,2.1462263E2,1.4990212E3,3.8863237E3,5.190386E2,2.8841406E2,7.6529E3,1.1972266E2,7.3815875E2,7.608624E2,3.1015002E3,7.8482336E2,5.2233825E0,5.138152E2,1.5187946E2,1.3653462E2,6.141302E2,7.0387695E3,8.6578835E1,3.3143818E1],"tree_param":{"num_deleted":"0","num_feature":"17","num_nodes":"25","size_leaf_vector":"1"}},{"base_weights":[1.8498132E-2,5.8848888E-2,-3.540871E-1,-1.0879396E0,6.9133066E-2,-8.107561E-1,-2.0714553E-1,-7.130269E-2,-6.284186E-2,-7.9793805E-1,8.194818E-2,1.4690332E0,-9.399355E-1,-5.5925883E-2,-8.2912344E-1,-7.056058E-2,5.6536682E-2,-7.5306915E-2,2.4421472E-2,1.5802583E-2,1.2386637E-3,-5.910188E-2,9.646091E-2,-5.9952844E-2,-7.609551E-4,-3.832071E-2,3.2944412E-3,-6.568268E-2,1.5642984E-2],"categories":[],"categories_nodes":[],"categories_segments":[],"categories_sizes":[],"default_left":[0,0,0,0,0,0,0,0,0,0,0,0,0,0,0,0,0,0,0,0,0,0,0,0,0,0,0,0,0],"id":15,"left_children":[1,3,5,7,9,11,13,-1,15,17,19,21,23,25,27,-1,-1,-1,-1,-1,-1,-1,-1,-1,-1,-1,-1,-1,-1],"loss_changes":[2.1295345E2,1.5080173E2,9.271257E1,3.9301895E1,1.4082217E2,1.0051236E2,9.857319E1,0E0,4.8645535E1,1.6889786E2,1.670877E2,2.4777561E1,7.645856E1,7.314299E1,1.1384018E2,0E0,0E0,0E0,0E0,0E0,0E0,0E0,0E0,0E0,0E0,0E0,0E0,0E0,0E0],"parents":[2147483647,0,0,1,1,2,2,3,3,4,4,5,5,6,6,8,8,9,9,10,10,11,11,12,12,13,13,14,14],"right_children":[2,4,6,8,10,12,14,-1,16,18,20,22,24,26,28,-1,-1,-1,-1,-1,-1,-1,-1,-1,-1,-1,-1,-1,-1],"split_conditions":[9.83941E-1,-1.1694396E0,6.7473453E-1,1.8552593E0,-1.6345234E0,-9.834445E-1,4.181148E-1,-7.130269E-2,1.2751697E0,1.641232E0,-1.1223413E0,1.641232E0,3.1762447E0,-8.5192865E-1,3.340232E0,-7.056058E-2,5.6536682E-2,-7.5306915E-2,2.4421472E-2,1.5802583E-2,1.2386637E-3,-5.910188E-2,9.646091E-2,-5.9952844E-2,-7.609551E-4,-3.832071E-2,3.2944412E-3,-6.568268E-2,1.5642984E-2],"split_indices":[2,0,13,1,1,1,0,0,4,9,1,9,2,0,6,0,0,0,0,0,0,0,0,0,0,0,0,0,0],"split_type":[0,0,0,0,0,0,0,0,0,0,0,0,0,0,0,0,0,0,0,0,0,0,0,0,0,0,0,0,0],"sum_hessian":[1.41623125E4,1.2779178E4,1.383135E3,1.1265122E2,1.2666526E4,3.3560754E2,1.0475275E3,8.441648E1,2.823474E1,1.8358963E2,1.2482937E4,1.7440552E1,3.18167E2,8.43532E2,2.0399551E2,1.317206E1,1.5062678E1,1.1829328E2,6.529635E1,2.4493818E3,1.0033555E4,2.3476136E0,1.5092937E1,2.4829407E2,6.987292E1,1.22683685E2,7.2084827E2,1.4312073E2,6.0874786E1],"tree_param":{"num_deleted":"0","num_feature":"17","num_nodes":"29","size_leaf_vector":"1"}},{"base_weights":[1.755037E-2,1.5397814E-1,-8.406232E-2,8.021366E-2,6.519819E-1,-4.7740687E-2,-7.225975E-2,2.8486637E-2,8.525271E-1,1.0276343E0,-4.9246016E-1,-7.341752E-2,1.6310596E0,-2.8400088E-3,3.290736E-2,-9.296959E-2,4.9135618E-2,1.9575706E-2,6.0736567E-2,-6.938E-2,3.2264777E-2,-7.7876593E-3,2.0302176E-2,8.722804E-2,6.4382076E-2],"categories":[],"categories_nodes":[],"categories_segments":[],"categories_sizes":[],"default_left":[0,0,0,0,0,0,0,0,0,0,0,0,0,0,0,0,0,0,0,0,0,0,0,0,0],"id":16,"left_children":[1,3,5,7,9,11,-1,13,15,17,19,21,23,-1,-1,-1,-1,-1,-1,-1,-1,-1,-1,-1,-1],"loss_changes":[1.9620882E2,2.2189078E2,4.009746E2,2.1024678E2,3.3554147E2,3.407523E2,0E0,2.6500507E2,1.1846266E2,6.93927E1,1.9772398E2,3.0735294E2,2.3953247E0,0E0,0E0,0E0,0E0,0E0,0E0,0E0,0E0,0E0,0E0,0E0,0E0],"parents":[2147483647,0,0,1,1,2,2,3,3,4,4,5,5,7,7,8,8,9,9,10,10,11,11,12,12],"right_children":[2,4,6,8,10,12,-1,14,16,18,20,22,24,-1,-1,-1,-1,-1,-1,-1,-1,-1,-1,-1,-1],"split_conditions":[-5.1361865E-1,9.472996E-1,1.1607752E0,4.955897E0,6.696271E-2,2.2244997E0,-7.225975E-2,4.850672E0,-1.6345234E0,-7.297613E-1,-6.525675E-1,6.8331736E-1,6.442883E-1,-2.8400088E-3,3.290736E-2,-9.296959E-2,4.9135618E-2,1.9575706E-2,6.0736567E-2,-6.938E-2,3.2264777E-2,-7.7876593E-3,2.0302176E-2,8.722804E-2,6.4382076E-2],"split_indices":[2,0,1,10,1,5,0,16,1,2,2,1,2,0,0,0,0,0,0,0,0,0,0,0,0],"split_type":[0,0,0,0,0,0,0,0,0,0,0,0,0,0,0,0,0,0,0,0,0,0,0,0,0],"sum_hessian":[1.4151696E4,6.040736E3,8.11096E3,5.262425E3,7.78311E2,7.901154E3,2.0980614E2,4.9330615E3,3.2936343E2,5.860482E2,1.9226277E2,7.78307E3,1.1808388E2,4.3453926E3,5.876688E2,1.4478378E1,3.1488504E2,1.338972E2,4.52151E2,1.07481285E2,8.4781494E1,6.642977E3,1.140093E3,8.5684746E1,3.2399136E1],"tree_param":{"num_deleted":"0","num_feature":"17","num_nodes":"25","size_leaf_vector":"1"}},{"base_weights":[1.670622E-2,5.4539774E-2,-3.3457416E-1,-1.0618076E0,6.430067E-2,-4.091722E-2,-5.5530214E-1,-6.977212E-2,-6.1337747E-2,8.889496E-2,-3.6741617E-1,8.1512675E-2,-6.733209E-2,-8.241091E-2,-4.2638525E-1,-6.893977E-2,5.4746088E-2,-3.0417565E-2,5.5049E-3,-8.388571E-3,-9.314486E-2,-2.4751155E-3,7.227462E-2,-1.0773887E-2,-5.8355268E-2],"categories":[],"categories_nodes":[],"categories_segments":[],"categories_sizes":[],"default_left":[0,0,0,0,0,0,0,0,0,0,0,0,0,0,0,0,0,0,0,0,0,0,0,0,0],"id":17,"left_children":[1,3,5,7,9,11,13,-1,15,17,19,21,-1,-1,23,-1,-1,-1,-1,-1,-1,-1,-1,-1,-1],"loss_changes":[1.8787146E2,1.3912218E2,8.9067474E1,3.685492E1,1.3436444E2,9.456685E1,1.0984166E2,0E0,4.526306E1,1.7703583E2,2.0333606E2,9.677861E1,0E0,0E0,1.09597336E2,0E0,0E0,0E0,0E0,0E0,0E0,0E0,0E0,0E0,0E0],"parents":[2147483647,0,0,1,1,2,2,3,3,4,4,5,5,6,6,8,8,9,9,10,10,11,11,14,14],"right_children":[2,4,6,8,10,12,14,-1,16,18,20,22,-1,-1,24,-1,-1,-1,-1,-1,-1,-1,-1,-1,-1],"split_conditions":[9.83941E-1,-1.1694396E0,9.677078E-1,1.8552593E0,3.340232E0,9.3506783E-1,-8.5192865E-1,-6.977212E-2,1.2751697E0,-1.5303508E0,5.096963E-1,9.0034366E-1,-6.733209E-2,-8.241091E-2,6.399121E-1,-6.893977E-2,5.4746088E-2,-3.0417565E-2,5.5049E-3,-8.388571E-3,-9.314486E-2,-2.4751155E-3,7.227462E-2,-1.0773887E-2,-5.8355268E-2],"split_indices":[2,0,8,1,6,1,0,0,4,1,1,1,0,0,1,0,0,0,0,0,0,0,0,0,0],"split_type":[0,0,0,0,0,0,0,0,0,0,0,0,0,0,0,0,0,0,0,0,0,0,0,0,0],"sum_hessian":[1.4133732E4,1.2760271E4,1.3734603E3,1.0966946E2,1.2650603E4,5.898749E2,7.8358545E2,8.194711E1,2.772234E1,1.1969511E4,6.810917E2,5.401645E2,4.971039E1,8.143347E1,7.02152E2,1.2867956E1,1.4854383E1,3.524296E2,1.1617081E4,6.0185675E2,7.923491E1,4.9370602E2,4.6458473E1,5.475401E2,1.5461186E2],"tree_param":{"num_deleted":"0","num_feature":"17","num_nodes":"25","size_leaf_vector":"1"}},{"base_weights":[1.5836634E-2,1.4402744E-1,-7.964376E-2,5.0764894E-1,4.739136E-2,-4.558399E-2,-7.036902E-2,1.7691796E-1,1.0658101E0,-1.0172733E-1,7.341111E-2,-6.986337E-2,1.576926E0,-6.712526E-2,2.7305692E-2,-1.0270625E-1,5.9558798E-2,2.1153385E-2,-3.0849173E-3,-3.5363026E-2,-6.320168E-4,8.386612E-2,6.29586E-2],"categories":[],"categories_nodes":[],"categories_segments":[],"categories_sizes":[],"default_left":[0,0,0,0,0,0,0,0,0,0,0,0,0,0,0,0,0,0,0,0,0,0,0],"id":18,"left_children":[1,3,5,7,9,11,-1,13,15,-1,17,19,21,-1,-1,-1,-1,-1,-1,-1,-1,-1,-1],"loss_changes":[1.728713E2,2.118324E2,3.6600073E2,2.3347467E2,2.5824033E2,3.110569E2,0E0,4.4726935E2,1.8657611E2,0E0,2.2236957E2,2.8368155E2,1.6018372E0,0E0,0E0,0E0,0E0,0E0,0E0,0E0,0E0,0E0,0E0],"parents":[2147483647,0,0,1,1,2,2,3,3,4,4,5,5,7,7,8,8,10,10,11,11,12,12],"right_children":[2,4,6,8,10,12,-1,14,16,-1,18,20,22,-1,-1,-1,-1,-1,-1,-1,-1,-1,-1],"split_conditions":[-5.1361865E-1,-1.1483845E0,1.1607752E0,-6.062512E-1,-1.0442119E0,2.2244997E0,-7.036902E-2,-1.4609023E0,-7.1963245E-1,-1.0172733E-1,-7.505016E-1,-1.2786002E0,6.442883E-1,-6.712526E-2,2.7305692E-2,-1.0270625E-1,5.9558798E-2,2.1153385E-2,-3.0849173E-3,-3.5363026E-2,-6.320168E-4,8.386612E-2,6.29586E-2],"split_indices":[2,1,1,2,1,5,0,1,0,0,0,1,2,0,0,0,0,0,0,0,0,0,0],"split_type":[0,0,0,0,0,0,0,0,0,0,0,0,0,0,0,0,0,0,0,0,0,0,0],"sum_hessian":[1.4121872E4,6.0281045E3,8.0937676E3,1.2647731E3,4.763331E3,7.8923438E3,2.0142406E2,7.950146E2,4.6975845E2,5.784374E1,4.7054873E3,7.776926E3,1.1541766E2,1.5489772E2,6.401169E2,1.7552422E1,4.5220602E2,1.3108754E3,3.394612E3,6.397299E2,7.137196E3,8.44549E1,3.0962755E1],"tree_param":{"num_deleted":"0","num_feature":"17","num_nodes":"23","size_leaf_vector":"1"}},{"base_weights":[1.5055418E-2,-1.136539E0,2.5469575E-2,-7.1245566E-2,-8.046125E-2,1.5339842E-1,-6.891097E-2,-6.7813136E-2,5.2292418E-2,8.416274E-2,6.162931E-1,-3.611514E-2,-6.898507E-2,2.3082664E-2,-2.4640225E-3,5.4739315E-2,-1.0570833E-2,-5.7905405E-3,2.125216E-2],"categories":[],"categories_nodes":[],"categories_segments":[],"categories_sizes":[],"default_left":[0,0,0,0,0,0,0,0,0,0,0,0,0,0,0,0,0,0,0],"id":19,"left_children":[1,3,5,-1,7,9,11,-1,-1,13,15,17,-1,-1,-1,-1,-1,-1,-1],"loss_changes":[1.6920016E2,3.839258E1,1.6881133E2,0E0,4.1912495E1,1.9017986E2,3.458284E2,0E0,0E0,2.6017932E2,3.060386E2,2.885723E2,0E0,0E0,0E0,0E0,0E0,0E0,0E0],"parents":[2147483647,0,0,1,1,2,2,4,4,5,5,6,6,9,9,10,10,11,11],"right_children":[2,4,6,-1,8,10,12,-1,-1,14,16,18,-1,-1,-1,-1,-1,-1,-1],"split_conditions":[-1.1694396E0,1.8552593E0,-5.1361865E-1,-7.1245566E-2,1.2751697E0,9.472996E-1,1.1607752E0,-6.7813136E-2,5.2292418E-2,-7.505016E-1,-4.5390037E-1,6.8331736E-1,-6.898507E-2,2.3082664E-2,-2.4640225E-3,5.4739315E-2,-1.0570833E-2,-5.7905405E-3,2.125216E-2],"split_indices":[0,1,2,0,4,0,1,0,0,0,1,1,0,0,0,0,0,0,0],"split_type":[0,0,0,0,0,0,0,0,0,0,0,0,0,0,0,0,0,0,0],"sum_hessian":[1.4104965E4,1.2544245E2,1.3979522E4,9.826185E1,2.7180609E1,5.934684E3,8.0448384E3,1.2648802E1,1.4531806E1,5.163548E3,7.711359E2,7.849473E3,1.9536543E2,1.347948E3,3.8155999E3,4.88446E2,2.826899E2,6.69348E3,1.1559933E3],"tree_param":{"num_deleted":"0","num_feature":"17","num_nodes":"19","size_leaf_vector":"1"}},{"base_weights":[1.4304649E-2,4.940743E-2,-3.1404206E-1,3.342293E-2,7.200084E-1,-7.5316006E-1,-1.7370604E-1,5.8555633E-2,-4.271181E-1,9.2487395E-1,-8.600717E-2,1.408148E0,-8.7908745E-1,-2.7106076E-2,-7.904327E-1,-2.855646E-2,3.8965817E-3,-3.5683182E-3,-9.447942E-2,-9.527352E-2,5.2798636E-2,-5.7001214E-2,9.205749E-2,-5.690616E-2,2.0990185E-3,1.6440459E-2,-1.2007712E-2,-6.416158E-2,1.635533E-2],"categories":[],"categories_nodes":[],"categories_segments":[],"categories_sizes":[],"default_left":[0,0,0,0,0,0,0,0,0,0,0,0,0,0,0,0,0,0,0,0,0,0,0,0,0,0,0,0,0],"id":20,"left_children":[1,3,5,7,9,11,13,15,17,19,-1,21,23,25,27,-1,-1,-1,-1,-1,-1,-1,-1,-1,-1,-1,-1,-1,-1],"loss_changes":[1.6239264E2,1.3641284E2,8.372667E1,1.4393217E2,1.4970207E2,9.0853424E1,9.333137E1,1.4389738E2,3.3466473E2,1.0367442E2,0E0,2.2525059E1,7.442879E1,6.3414318E1,1.0960874E2,0E0,0E0,0E0,0E0,0E0,0E0,0E0,0E0,0E0,0E0,0E0,0E0,0E0,0E0],"parents":[2147483647,0,0,1,1,2,2,3,3,4,4,5,5,6,6,7,7,8,8,9,9,11,11,12,12,13,13,14,14],"right_children":[2,4,6,8,10,12,14,16,18,20,-1,22,24,26,28,-1,-1,-1,-1,-1,-1,-1,-1,-1,-1,-1,-1,-1,-1],"split_conditions":[9.83941E-1,8.758697E-1,6.7473453E-1,3.340232E0,4.5761E-1,-9.834445E-1,4.181148E-1,-1.5303508E0,2.4288057E-1,-8.7059087E-1,-8.600717E-2,1.641232E0,3.1762447E0,9.677078E-1,3.340232E0,-2.855646E-2,3.8965817E-3,-3.5683182E-3,-9.447942E-2,-9.527352E-2,5.2798636E-2,-5.7001214E-2,9.205749E-2,-5.690616E-2,2.0990185E-3,1.6440459E-2,-1.2007712E-2,-6.416158E-2,1.635533E-2],"split_indices":[2,2,13,6,1,1,0,1,2,1,0,9,2,8,6,0,0,0,0,0,0,0,0,0,0,0,0,0,0],"split_type":[0,0,0,0,0,0,0,0,0,0,0,0,0,0,0,0,0,0,0,0,0,0,0,0,0,0,0,0,0],"sum_hessian":[1.4087042E4,1.2727251E4,1.3597911E3,1.2431971E4,2.9527966E2,3.282657E2,1.0315254E3,1.1789468E4,6.425034E2,2.7298212E2,2.2297537E1,1.7512589E1,3.1075308E2,8.3426025E2,1.9726517E2,3.5109354E2,1.1438374E4,5.176353E2,1.2486807E2,1.1485356E1,2.6149677E2,2.30646E0,1.5206129E1,2.4235808E2,6.839502E1,3.12185E2,5.2207526E2,1.3679482E2,6.047036E1],"tree_param":{"num_deleted":"0","num_feature":"17","num_nodes":"29","size_leaf_vector":"1"}},{"base_weights":[1.355905E-2,-1.1110278E0,2.3469673E-2,-6.970849E-2,-8.2488865E-2,1.4360273E-1,-6.518705E-2,-6.637531E-2,5.0527412E-2,4.797828E-1,5.3246804E-2,-3.4110494E-2,-6.764008E-2,7.822998E-3,5.1351923E-2,2.2943858E-2,-4.5744604E-3,-2.860125E-3,7.657299E-2],"categories":[],"categories_nodes":[],"categories_segments":[],"categories_sizes":[],"default_left":[0,0,0,0,0,0,0,0,0,0,0,0,0,0,0,0,0,0,0],"id":21,"left_children":[1,3,5,-1,7,9,11,-1,-1,13,15,17,-1,-1,-1,-1,-1,-1,-1],"loss_changes":[1.5694183E2,3.570851E1,1.4865997E2,0E0,3.8923046E1,1.8000511E2,3.2132123E2,0E0,0E0,2.2196674E2,2.7435455E2,2.836292E2,0E0,0E0,0E0,0E0,0E0,0E0,0E0],"parents":[2147483647,0,0,1,1,2,2,4,4,5,5,6,6,9,9,10,10,11,11],"right_children":[2,4,6,-1,8,10,12,-1,-1,14,16,18,-1,-1,-1,-1,-1,-1,-1],"split_conditions":[-1.1694396E0,1.8552593E0,-5.1361865E-1,-6.970849E-2,1.2751697E0,-1.1483845E0,1.1607752E0,-6.637531E-2,5.0527412E-2,-6.062512E-1,-7.505016E-1,2.2244997E0,-6.764008E-2,7.822998E-3,5.1351923E-2,2.2943858E-2,-4.5744604E-3,-2.860125E-3,7.657299E-2],"split_indices":[0,1,2,0,4,1,1,0,0,2,0,5,0,0,0,0,0,0,0],"split_type":[0,0,0,0,0,0,0,0,0,0,0,0,0,0,0,0,0,0,0],"sum_hessian":[1.4078024E4,1.22010735E2,1.3956014E4,9.5394516E1,2.6616222E1,5.9257666E3,8.030247E3,1.2342763E1,1.4273459E1,1.2543811E3,4.6713853E3,7.842007E3,1.8824023E2,7.893267E2,4.6505438E2,1.2279158E3,3.4434695E3,7.7289688E3,1.13038055E2],"tree_param":{"num_deleted":"0","num_feature":"17","num_nodes":"19","size_leaf_vector":"1"}},{"base_weights":[1.2894259E-2,-6.4432114E-2,1.5033947E-1,-2.6874147E-2,-1.0348116E0,2.3074664E-1,-1.9140172E-1,-8.9874685E-2,-5.8979997E-3,9.879576E-1,-1.3741467E0,4.751349E-1,4.0385425E-2,-9.70628E-2,2.7673047E-2,-5.806112E-3,8.685102E-3,6.861017E-2,-8.842557E-2,-9.117367E-2,-3.6126133E-2,-9.821067E-3,2.9741844E-2,7.4074827E-3,-7.443995E-2,8.301417E-2,-7.0191137E-3],"categories":[],"categories_nodes":[],"categories_segments":[],"categories_sizes":[],"default_left":[0,0,0,0,0,0,0,0,0,0,0,0,0,0,0,0,0,0,0,0,0,0,0,0,0,0,0],"id":22,"left_children":[1,3,5,7,9,11,13,-1,15,17,19,21,23,-1,25,-1,-1,-1,-1,-1,-1,-1,-1,-1,-1,-1,-1],"loss_changes":[1.494272E2,3.2789716E2,1.3913963E2,3.217563E2,2.3146997E2,1.9064095E2,3.698741E2,0E0,1.695359E2,5.4053104E1,8.286145E1,1.4436218E2,3.8004492E2,0E0,2.3573927E2,0E0,0E0,0E0,0E0,0E0,0E0,0E0,0E0,0E0,0E0,0E0,0E0],"parents":[2147483647,0,0,1,1,2,2,3,3,4,4,5,5,6,6,8,8,9,9,10,10,11,11,12,12,14,14],"right_children":[2,4,6,8,10,12,14,-1,16,18,20,22,24,-1,26,-1,-1,-1,-1,-1,-1,-1,-1,-1,-1,-1,-1],"split_conditions":[1.422179E0,1.3662375E0,3.6639065E-1,-1.5303508E0,-1.3046434E0,1.2751697E0,4.899007E-1,-8.9874685E-2,6.8331736E-1,1.2751697E0,2.5789526E0,-1.3220055E0,9.5242995E-1,-9.70628E-2,5.0533944E-1,-5.806112E-3,8.685102E-3,6.861017E-2,-8.842557E-2,-9.117367E-2,-3.6126133E-2,-9.821067E-3,2.9741844E-2,7.4074827E-3,-7.443995E-2,8.301417E-2,-7.0191137E-3],"split_indices":[3,0,2,1,1,4,2,0,1,4,0,1,1,0,2,0,0,0,0,0,0,0,0,0,0,0,0],"split_type":[0,0,0,0,0,0,0,0,0,0,0,0,0,0,0,0,0,0,0,0,0,0,0,0,0,0,0],"sum_hessian":[1.4057671E4,8.996687E3,5.0609844E3,8.662439E3,3.3424692E2,4.097275E3,9.6370966E2,1.00428955E2,8.562011E3,4.7742645E1,2.8650427E2,1.7933948E3,2.3038801E3,1.063534E2,8.5735626E2,5.3059766E3,3.256034E3,4.2342396E1,5.4002504E0,1.6851003E2,1.17994255E2,2.7120877E2,1.522186E3,2.1530537E3,1.5082625E2,7.918797E1,7.781683E2],"tree_param":{"num_deleted":"0","num_feature":"17","num_nodes":"27","size_leaf_vector":"1"}},{"base_weights":[1.222618E-2,-1.0894883E0,2.1687668E-2,-6.839584E-2,-8.678396E-2,4.9455985E-2,-3.1243342E-1,-6.5159485E-2,4.887497E-2,2.660973E-2,4.3482333E-1,-7.971757E-2,-2.229538E-1,8.417156E-3,-2.6279388E-3,2.7282897E-2,-7.6504014E-2,-1.3374353E-2,6.1263602E-2],"categories":[],"categories_nodes":[],"categories_segments":[],"categories_sizes":[],"default_left":[0,0,0,0,0,0,0,0,0,0,0,0,0,0,0,0,0,0,0],"id":23,"left_children":[1,3,5,-1,7,9,11,-1,-1,13,15,-1,17,-1,-1,-1,-1,-1,-1],"loss_changes":[1.4647128E2,3.3284485E1,1.2926357E2,0E0,3.6319458E1,1.1323312E2,1.2227105E2,0E0,0E0,1.3627187E2,1.5759398E2,0E0,6.485193E1,0E0,0E0,0E0,0E0,0E0,0E0],"parents":[2147483647,0,0,1,1,2,2,4,4,5,5,6,6,9,9,10,10,12,12],"right_children":[2,4,6,-1,8,10,12,-1,-1,14,16,-1,18,-1,-1,-1,-1,-1,-1],"split_conditions":[-1.1694396E0,1.8552593E0,1.2155224E0,-6.839584E-2,1.2751697E0,4.850672E0,1.3235937E0,-6.5159485E-2,4.887497E-2,-7.4037504E-1,2.673793E-2,-7.971757E-2,2.2244997E0,8.417156E-3,-2.6279388E-3,2.7282897E-2,-7.6504014E-2,-1.3374353E-2,6.1263602E-2],"split_indices":[0,1,2,0,4,16,2,0,0,1,2,0,5,0,0,0,0,0,0],"split_type":[0,0,0,0,0,0,0,0,0,0,0,0,0,0,0,0,0,0,0],"sum_hessian":[1.4048275E4,1.1864689E2,1.3929629E4,9.25763E1,2.6070587E1,1.2861574E4,1.0680547E3,1.2061086E1,1.4009501E1,1.2142767E4,7.188071E2,6.859009E1,9.9946466E2,4.351414E3,7.791353E3,6.811099E2,3.7697166E1,9.704387E2,2.9025904E1],"tree_param":{"num_deleted":"0","num_feature":"17","num_nodes":"19","size_leaf_vector":"1"}},{"base_weights":[1.1604952E-2,-1.0677406E0,2.0610543E-2,-6.715132E-2,-8.5060306E-2,4.5329735E-2,-3.346255E-1,-6.3832596E-2,4.7398742E-2,1.9348906E-1,-2.2766568E-2,-1.8140514E-1,-1.2348396E0,-4.8462017E-3,2.1154111E-2,-1.0726745E-2,6.2571825E-3,-3.0138412E-2,1.844301E-2,8.9936644E-2,-8.294503E-2],"categories":[],"categories_nodes":[],"categories_segments":[],"categories_sizes":[],"default_left":[0,0,0,0,0,0,0,0,0,0,0,0,0,0,0,0,0,0,0,0,0],"id":24,"left_children":[1,3,5,-1,7,9,11,-1,-1,13,15,17,19,-1,-1,-1,-1,-1,-1,-1,-1],"loss_changes":[1.364493E2,3.1308105E1,1.22251945E2,0E0,3.381402E1,1.3132024E2,1.2470747E2,0E0,0E0,2.7332047E2,2.5298273E2,1.799578E2,1.7223567E2,0E0,0E0,0E0,0E0,0E0,0E0,0E0,0E0],"parents":[2147483647,0,0,1,1,2,2,4,4,5,5,6,6,9,9,10,10,11,11,12,12],"right_children":[2,4,6,-1,8,10,12,-1,-1,14,16,18,20,-1,-1,-1,-1,-1,-1,-1,-1],"split_conditions":[-1.1694396E0,1.8552593E0,3.340232E0,-6.715132E-2,1.2751697E0,-7.4037504E-1,5.704637E-1,-6.3832596E-2,4.7398742E-2,-2.6100564E-1,3.2739425E-1,-2.542362E-1,-1.1510944E0,-4.8462017E-3,2.1154111E-2,-1.0726745E-2,6.2571825E-3,-3.0138412E-2,1.844301E-2,8.9936644E-2,-8.294503E-2],"split_indices":[0,1,6,0,4,1,1,0,0,0,1,1,0,0,0,0,0,0,0,0,0],"split_type":[0,0,0,0,0,0,0,0,0,0,0,0,0,0,0,0,0,0,0,0,0],"sum_hessian":[1.40345205E4,1.15156235E2,1.3919364E4,8.966968E1,2.5486559E1,1.3014611E4,9.047527E2,1.1725514E1,1.3761044E1,4.0975654E3,8.917046E3,7.741846E2,1.3056808E2,1.8094121E3,2.288153E3,3.8826582E3,5.034388E3,4.3839233E2,3.3579227E2,1.5615928E1,1.14952156E2],"tree_param":{"num_deleted":"0","num_feature":"17","num_nodes":"21","size_leaf_vector":"1"}},{"base_weights":[1.101303E-2,-6.1484117E-2,1.398375E-1,-2.571636E-2,-9.95588E-1,1.8540333E-1,-4.1039893E-1,-8.675649E-2,-5.6587216E-3,-1.7629851E0,-1.7613025E-1,-9.4167165E-2,1.984005E-1,3.0682346E-1,-1.3841445E0,-5.415823E-3,8.093661E-3,-9.22725E-2,-6.264683E-2,2.8855557E-2,-6.67861E-2,1.3820374E-2,-5.8859806E-3,3.6940854E-2,-8.031386E-2,-9.5323764E-2,-4.1250788E-2],"categories":[],"categories_nodes":[],"categories_segments":[],"categories_sizes":[],"default_left":[0,0,0,0,0,0,0,0,0,0,0,0,0,0,0,0,0,0,0,0,0,0,0,0,0,0,0],"id":25,"left_children":[1,3,5,7,9,11,13,-1,15,17,19,-1,21,23,25,-1,-1,-1,-1,-1,-1,-1,-1,-1,-1,-1,-1],"loss_changes":[1.3100487E2,2.9986853E2,1.2672018E2,2.964328E2,2.0783667E2,1.2582152E2,2.704363E2,0E0,1.4700748E2,4.8725586E0,1.4155377E2,0E0,1.1438826E2,1.8585927E2,4.6371674E1,0E0,0E0,0E0,0E0,0E0,0E0,0E0,0E0,0E0,0E0,0E0,0E0],"parents":[2147483647,0,0,1,1,2,2,3,3,4,4,5,5,6,6,8,8,9,9,10,10,12,12,13,13,14,14],"right_children":[2,4,6,8,10,12,14,-1,16,18,20,-1,22,24,26,-1,-1,-1,-1,-1,-1,-1,-1,-1,-1,-1,-1],"split_conditions":[1.422179E0,1.3662375E0,1.0045162E0,-1.5303508E0,2.5789526E0,-9.9304456E-1,1.2751697E0,-8.675649E-2,6.8331736E-1,9.3762475E-1,-5.457201E-2,-9.4167165E-2,3.6639065E-1,-8.687101E-1,-5.599349E-1,-5.415823E-3,8.093661E-3,-9.22725E-2,-6.264683E-2,2.8855557E-2,-6.67861E-2,1.3820374E-2,-5.8859806E-3,3.6940854E-2,-8.031386E-2,-9.5323764E-2,-4.1250788E-2],"split_indices":[3,0,1,1,0,0,4,0,1,2,1,0,2,2,2,0,0,0,0,0,0,0,0,0,0,0,0],"split_type":[0,0,0,0,0,0,0,0,0,0,0,0,0,0,0,0,0,0,0,0,0,0,0,0,0,0,0],"sum_hessian":[1.4025186E4,8.974965E3,5.05022E3,8.644968E3,3.299968E2,4.6646016E3,3.8561896E2,9.926884E1,8.545699E3,1.6981699E2,1.6017981E2,2.8224514E1,4.636377E3,2.2245348E2,1.631655E2,5.2990063E3,3.2466929E3,1.439284E2,2.588857E1,9.740822E1,6.2771587E1,3.71883E3,9.175469E2,1.819757E2,4.047777E1,8.311285E1,8.005265E1],"tree_param":{"num_deleted":"0","num_feature":"17","num_nodes":"27","size_leaf_vector":"1"}},{"base_weights":[1.0416705E-2,-1.0483596E0,1.8995076E-2,-6.60153E-2,-8.819626E-2,1.23114705E-1,-5.7821628E-2,-6.277438E-2,4.596744E-2,5.5808935E-2,5.786433E-1,-2.8882297E-2,-6.5971844E-2,2.0203441E-2,-3.3324875E-3,-1.6216228E-2,4.8569996E-2,-2.535875E-3,7.451694E-2],"categories":[],"categories_nodes":[],"categories_segments":[],"categories_sizes":[],"default_left":[0,0,0,0,0,0,0,0,0,0,0,0,0,0,0,0,0,0,0],"id":26,"left_children":[1,3,5,-1,7,9,11,-1,-1,13,15,17,-1,-1,-1,-1,-1,-1,-1],"loss_changes":[1.2731477E2,2.9300316E1,1.11210045E2,0E0,3.1659008E1,1.8095554E2,2.9209927E2,0E0,0E0,2.1941821E2,2.697812E2,2.595874E2,0E0,0E0,0E0,0E0,0E0,0E0,0E0],"parents":[2147483647,0,0,1,1,2,2,4,4,5,5,6,6,9,9,10,10,11,11],"right_children":[2,4,6,-1,8,10,12,-1,-1,14,16,18,-1,-1,-1,-1,-1,-1,-1],"split_conditions":[-1.1694396E0,1.8552593E0,-5.1361865E-1,-6.60153E-2,1.2751697E0,9.472996E-1,1.1607752E0,-6.277438E-2,4.596744E-2,-7.505016E-1,-7.297613E-1,2.2244997E0,-6.5971844E-2,2.0203441E-2,-3.3324875E-3,-1.6216228E-2,4.8569996E-2,-2.535875E-3,7.451694E-2],"split_indices":[0,1,2,0,4,0,1,0,0,0,2,5,0,0,0,0,0,0,0],"split_type":[0,0,0,0,0,0,0,0,0,0,0,0,0,0,0,0,0,0,0],"sum_hessian":[1.4014281E4,1.1165914E2,1.3902622E4,8.6721886E1,2.4937256E1,5.902116E3,8.0005054E3,1.1438776E1,1.349848E1,5.1433003E3,7.5881604E2,7.8221025E3,1.7840298E2,1.337445E3,3.8058552E3,2.3006314E2,5.287529E2,7.712224E3,1.0987833E2],"tree_param":{"num_deleted":"0","num_feature":"17","num_nodes":"19","size_leaf_vector":"1"}},{"base_weights":[9.907194E-3,-1.0294605E0,1.8078083E-2,-6.4954765E-2,-8.658937E-2,-4.8261866E-2,1.3495982E-1,8.048454E-1,-6.806887E-2,-1.3246736E-2,-9.6216524E-1,2.7301374E-1,-2.8026627E-2,-4.510708E-2,5.7573985E-2,-8.3957784E-2,3.0274922E-4,4.539632E-2,-6.3524835E-2,1.0528224E-2,4.829861E-2,2.79937E-3,-7.736731E-2],"categories":[],"categories_nodes":[],"categories_segments":[],"categories_sizes":[],"default_left":[0,0,0,0,0,0,0,0,0,0,0,0,0,0,0,0,0,0,0,0,0,0,0],"id":27,"left_children":[1,3,5,-1,7,9,11,13,-1,15,17,19,21,-1,-1,-1,-1,-1,-1,-1,-1,-1,-1],"loss_changes":[1.1886066E2,2.7641632E1,1.0767368E2,0E0,2.9901167E1,2.834679E2,1.1313894E2,1.0237063E1,0E0,2.7438083E2,1.8962955E2,1.1760022E2,2.9451407E2,0E0,0E0,0E0,0E0,0E0,0E0,0E0,0E0,0E0,0E0],"parents":[2147483647,0,0,1,1,2,2,4,4,5,5,6,6,7,7,9,9,10,10,11,11,12,12],"right_children":[2,4,6,-1,8,10,12,14,-1,16,18,20,22,-1,-1,-1,-1,-1,-1,-1,-1,-1,-1],"split_conditions":[-1.1694396E0,1.8552593E0,1.422179E0,-6.4954765E-2,1.8813025E0,1.3662375E0,-2.9747602E-1,1.2751697E0,-6.806887E-2,-1.5303508E0,-1.3046434E0,1.9615704E0,7.96171E-1,-4.510708E-2,5.7573985E-2,-8.3957784E-2,3.0274922E-4,4.539632E-2,-6.3524835E-2,1.0528224E-2,4.829861E-2,2.79937E-3,-7.736731E-2],"split_indices":[0,1,3,0,1,0,2,4,0,1,1,0,1,0,0,0,0,0,0,0,0,0,0],"split_type":[0,0,0,0,0,0,0,0,0,0,0,0,0,0,0,0,0,0,0,0,0,0,0],"sum_hessian":[1.3992668E4,1.08169044E2,1.3884499E4,8.382083E1,2.4348217E1,8.857646E3,5.026852E3,1.4545484E1,9.802733E0,8.531776E3,3.2587045E2,2.7212256E3,2.3056267E3,2.1846564E0,1.2360827E1,9.673456E1,8.435042E3,4.584806E1,2.800224E2,2.497459E3,2.237666E2,2.1857253E3,1.1990121E2],"tree_param":{"num_deleted":"0","num_feature":"17","num_nodes":"23","size_leaf_vector":"1"}},{"base_weights":[9.383887E-3,-1.0125488E0,1.7165424E-2,-6.397248E-2,-8.669023E-2,4.2082146E-2,-2.8538716E-1,7.83863E-1,-6.673374E-2,2.0661933E-2,4.0576217E-1,-7.705224E-2,-1.9975984E-1,-4.4294715E-2,5.6226432E-2,7.414636E-3,-2.5253184E-3,-9.295528E-2,2.4676243E-2,-3.1812023E-2,-2.8145015E-3],"categories":[],"categories_nodes":[],"categories_segments":[],"categories_sizes":[],"default_left":[0,0,0,0,0,0,0,0,0,0,0,0,0,0,0,0,0,0,0,0,0],"id":28,"left_children":[1,3,5,-1,7,9,11,13,-1,15,17,-1,19,-1,-1,-1,-1,-1,-1,-1,-1],"loss_changes":[1.11181404E2,2.5997978E1,1.046055E2,0E0,2.7897537E1,9.985722E1,1.1321146E2,9.6362095E0,0E0,1.0998356E2,1.4264125E2,0E0,6.193202E1,0E0,0E0,0E0,0E0,0E0,0E0,0E0,0E0],"parents":[2147483647,0,0,1,1,2,2,4,4,5,5,6,6,7,7,9,9,10,10,12,12],"right_children":[2,4,6,-1,8,10,12,14,-1,16,18,-1,20,-1,-1,-1,-1,-1,-1,-1,-1],"split_conditions":[-1.1694396E0,1.8552593E0,1.2155224E0,-6.397248E-2,1.8813025E0,4.850672E0,1.3235937E0,1.2751697E0,-6.673374E-2,-7.4037504E-1,-2.8528854E-2,-7.705224E-2,6.7473453E-1,-4.4294715E-2,5.6226432E-2,7.414636E-3,-2.5253184E-3,-9.295528E-2,2.4676243E-2,-3.1812023E-2,-2.8145015E-3],"split_indices":[0,1,2,0,1,16,2,4,0,1,1,0,13,0,0,0,0,0,0,0,0],"split_type":[0,0,0,0,0,0,0,0,0,0,0,0,0,0,0,0,0,0,0,0,0],"sum_hessian":[1.3978015E4,1.0465591E2,1.3873359E4,8.094087E1,2.371504E1,1.2818548E4,1.0548108E3,1.4189091E1,9.525949E0,1.2106548E4,7.120008E2,6.625378E1,9.8855695E2,2.133137E0,1.2055954E1,4.3336484E3,7.7728994E3,2.58076E1,6.861932E2,2.437024E2,7.4485455E2],"tree_param":{"num_deleted":"0","num_feature":"17","num_nodes":"21","size_leaf_vector":"1"}},{"base_weights":[8.8898E-3,-5.607865E-2,1.24422304E-1,-2.3522003E-2,-9.230001E-1,2.979733E-1,2.5473295E-3,-8.1217535E-2,-5.268811E-3,-1.6606915E0,-1.4585906E-1,4.691472E-1,-4.134776E-1,9.173965E-2,-1.3744898E0,1.17825605E-2,-3.7204337E-3,-8.6384416E-2,-6.0576476E-2,2.7902264E-2,-6.146539E-2,-8.809722E-3,2.9395733E-2,-1.7759055E-4,-6.742469E-2,-3.9864485E-3,3.0803595E-2,-9.228968E-2,-4.3658353E-2],"categories":[],"categories_nodes":[],"categories_segments":[],"categories_sizes":[],"default_left":[0,0,0,0,0,0,0,0,0,0,0,0,0,0,0,0,0,0,0,0,0,0,0,0,0,0,0,0,0],"id":29,"left_children":[1,3,5,7,9,11,13,-1,15,17,19,21,23,25,27,-1,-1,-1,-1,-1,-1,-1,-1,-1,-1,-1,-1,-1,-1],"loss_changes":[1.0484574E2,2.5232217E2,1.06341705E2,2.518159E2,1.8526547E2,2.5278136E2,3.6300763E2,0E0,1.4196996E2,2.899475E0,1.2169857E2,1.2827954E2,1.5437428E2,2.4960818E2,4.086856E1,0E0,0E0,0E0,0E0,0E0,0E0,0E0,0E0,0E0,0E0,0E0,0E0,0E0,0E0],"parents":[2147483647,0,0,1,1,2,2,3,3,4,4,5,5,6,6,8,8,9,9,10,10,11,11,12,12,13,13,14,14],"right_children":[2,4,6,8,10,12,14,-1,16,18,20,22,24,26,28,-1,-1,-1,-1,-1,-1,-1,-1,-1,-1,-1,-1,-1,-1],"split_conditions":[1.422179E0,1.3662375E0,1.2751697E0,-1.5303508E0,2.5789526E0,1.1937048E-1,9.5242995E-1,-8.1217535E-2,-8.3586663E-1,9.3762475E-1,-5.457201E-2,-1.3220055E0,2.1085078E-1,2.8398898E-1,-5.599349E-1,1.17825605E-2,-3.7204337E-3,-8.6384416E-2,-6.0576476E-2,2.7902264E-2,-6.146539E-2,-8.809722E-3,2.9395733E-2,-1.7759055E-4,-6.742469E-2,-3.9864485E-3,3.0803595E-2,-9.228968E-2,-4.3658353E-2],"split_indices":[3,0,4,1,0,2,1,0,1,2,1,1,0,1,2,0,0,0,0,0,0,0,0,0,0,0,0,0,0],"split_type":[0,0,0,0,0,0,0,0,0,0,0,0,0,0,0,0,0,0,0,0,0,0,0,0,0,0,0,0,0],"sum_hessian":[1.3966389E4,8.939738E3,5.0266504E3,8.617154E3,3.2258426E2,2.0730972E3,2.953553E3,9.615602E1,8.520998E3,1.6490927E2,1.5767499E2,1.6713208E3,4.0177646E2,2.774762E3,1.7879121E2,1.8995496E3,6.6214487E3,1.4102724E2,2.3882034E1,9.587259E1,6.1802395E1,2.5970245E2,1.4116184E3,2.800166E2,1.2175987E2,2.0916067E3,6.831552E2,9.07724E1,8.801881E1],"tree_param":{"num_deleted":"0","num_feature":"17","num_nodes":"29","size_leaf_vector":"1"}},{"base_weights":[8.4070265E-3,-9.945975E-1,1.5800554E-2,-6.304883E-2,-8.047398E-2,3.8120646E-2,-3.0601037E-1,7.648542E-1,-6.487482E-2,-5.2544624E-1,5.3506307E-2,-1.6390976E-1,-1.168791E0,-4.359142E-2,5.503263E-2,-5.0721347E-2,3.0223623E-2,1.1572898E-2,-1.0652763E-3,-2.8529448E-2,1.8285392E-2,8.518263E-2,-7.95259E-2],"categories":[],"categories_nodes":[],"categories_segments":[],"categories_sizes":[],"default_left":[0,0,0,0,0,0,0,0,0,0,0,0,0,0,0,0,0,0,0,0,0,0,0],"id":30,"left_children":[1,3,5,-1,7,9,11,13,-1,15,17,19,21,-1,-1,-1,-1,-1,-1,-1,-1,-1,-1],"loss_changes":[1.0349714E2,2.476638E1,9.9516884E1,0E0,2.5799067E1,1.1236374E2,1.0998039E2,9.125656E0,0E0,1.9088943E2,1.6790929E2,1.6663768E2,1.5644757E2,0E0,0E0,0E0,0E0,0E0,0E0,0E0,0E0,0E0,0E0],"parents":[2147483647,0,0,1,1,2,2,4,4,5,5,6,6,7,7,9,9,10,10,11,11,12,12],"right_children":[2,4,6,-1,8,10,12,14,-1,16,18,20,22,-1,-1,-1,-1,-1,-1,-1,-1,-1,-1],"split_conditions":[-1.1694396E0,1.8552593E0,3.340232E0,-6.304883E-2,1.8813025E0,-1.5303508E0,5.704637E-1,1.2751697E0,-6.487482E-2,4.955897E0,-7.4037504E-1,-2.542362E-1,-1.1510944E0,-4.359142E-2,5.503263E-2,-5.0721347E-2,3.0223623E-2,1.1572898E-2,-1.0652763E-3,-2.8529448E-2,1.8285392E-2,8.518263E-2,-7.95259E-2],"split_indices":[0,1,6,0,1,1,1,4,0,10,1,1,0,0,0,0,0,0,0,0,0,0,0],"split_type":[0,0,0,0,0,0,0,0,0,0,0,0,0,0,0,0,0,0,0,0,0,0,0],"sum_hessian":[1.3953293E4,1.01125336E2,1.3852167E4,7.80127E1,2.311263E1,1.295455E4,8.976173E2,1.3858341E1,9.25429E0,3.4338614E2,1.2611164E4,7.7170667E2,1.2591066E2,2.0875125E0,1.1770828E1,2.3973938E2,1.0364677E2,3.7319775E3,8.879187E3,4.364732E2,3.3523346E2,1.57302065E1,1.1018046E2],"tree_param":{"num_deleted":"0","num_feature":"17","num_nodes":"23","size_leaf_vector":"1"}},{"base_weights":[7.968144E-3,-9.7986716E-1,1.5008038E-2,-6.220134E-2,-8.085016E-2,1.10276304E-1,-5.525111E-2,7.456925E-1,-6.370352E-2,4.680981E-2,5.4589576E-1,-2.8778324E-2,-6.430139E-2,-4.283221E-2,5.3813953E-2,1.9186482E-2,-3.5713022E-3,4.3862514E-2,-2.1654835E-2,-5.300965E-3,2.0939423E-2],"categories":[],"categories_nodes":[],"categories_segments":[],"categories_sizes":[],"default_left":[0,0,0,0,0,0,0,0,0,0,0,0,0,0,0,0,0,0,0,0,0],"id":31,"left_children":[1,3,5,-1,7,9,11,13,-1,15,17,19,-1,-1,-1,-1,-1,-1,-1,-1,-1],"loss_changes":[9.698818E1,2.333635E1,9.268913E1,0E0,2.4108969E1,1.6247638E2,2.5964548E2,8.604506E0,0E0,2.0443968E2,2.4281396E2,2.6980844E2,0E0,0E0,0E0,0E0,0E0,0E0,0E0,0E0,0E0],"parents":[2147483647,0,0,1,1,2,2,4,4,5,5,6,6,7,7,9,9,10,10,11,11],"right_children":[2,4,6,-1,8,10,12,14,-1,16,18,20,-1,-1,-1,-1,-1,-1,-1,-1,-1],"split_conditions":[-1.1694396E0,1.8552593E0,-5.1361865E-1,-6.220134E-2,1.8813025E0,9.472996E-1,1.1607752E0,1.2751697E0,-6.370352E-2,-7.505016E-1,6.696271E-2,6.8331736E-1,-6.430139E-2,-4.283221E-2,5.3813953E-2,1.9186482E-2,-3.5713022E-3,4.3862514E-2,-2.1654835E-2,-5.300965E-3,2.0939423E-2],"split_indices":[0,1,2,0,1,0,1,4,0,0,1,1,0,0,0,0,0,0,0,0,0],"split_type":[0,0,0,0,0,0,0,0,0,0,0,0,0,0,0,0,0,0,0,0,0],"sum_hessian":[1.3943479E4,9.768843E1,1.384579E4,7.520659E1,2.248184E1,5.876691E3,7.9690996E3,1.3503226E1,8.978615E0,5.130345E3,7.4634546E2,7.802303E3,1.6679643E2,2.0372908E0,1.1465935E1,1.3321271E3,3.7982183E3,5.5769073E2,1.8865477E2,6.6546143E3,1.1476888E3],"tree_param":{"num_deleted":"0","num_feature":"17","num_nodes":"21","size_leaf_vector":"1"}},{"base_weights":[7.561548E-3,-5.4587066E-2,1.1809694E-1,-2.3335058E-2,-8.9921296E-1,2.8303248E-1,2.532826E-3,-7.780224E-2,-6.322354E-3,-1.6094487E0,-1.5701804E-1,4.4572797E-1,-3.9264977E-1,8.643788E-2,-1.3192075E0,-5.2992306E-3,7.853234E-3,-8.346607E-2,-5.9604146E-2,2.6485218E-2,-5.9081133E-2,1.3785489E-2,4.2326476E-2,-8.725828E-5,-6.462165E-2,-3.885608E-3,2.9398793E-2,-8.842417E-2,-4.1530527E-2],"categories":[],"categories_nodes":[],"categories_segments":[],"categories_sizes":[],"default_left":[0,0,0,0,0,0,0,0,0,0,0,0,0,0,0,0,0,0,0,0,0,0,0,0,0,0,0,0,0],"id":32,"left_children":[1,3,5,7,9,11,13,-1,15,17,19,21,23,25,27,-1,-1,-1,-1,-1,-1,-1,-1,-1,-1,-1,-1,-1,-1],"loss_changes":[9.567046E1,2.3528918E2,9.553366E1,2.24174E2,1.674024E2,2.2717685E2,3.2706857E2,0E0,1.3849332E2,2.0686035E0,1.10836754E2,1.1320529E2,1.4113174E2,2.283506E2,3.7174988E1,0E0,0E0,0E0,0E0,0E0,0E0,0E0,0E0,0E0,0E0,0E0,0E0,0E0,0E0],"parents":[2147483647,0,0,1,1,2,2,3,3,4,4,5,5,6,6,8,8,9,9,10,10,11,11,12,12,13,13,14,14],"right_children":[2,4,6,8,10,12,14,-1,16,18,20,22,24,26,28,-1,-1,-1,-1,-1,-1,-1,-1,-1,-1,-1,-1,-1,-1],"split_conditions":[1.422179E0,1.3662375E0,1.2751697E0,-1.5303508E0,2.5789526E0,1.1937048E-1,9.5242995E-1,-7.780224E-2,6.8331736E-1,9.3762475E-1,-5.290574E-1,5.945097E-1,2.1085078E-1,2.8398898E-1,-5.599349E-1,-5.2992306E-3,7.853234E-3,-8.346607E-2,-5.9604146E-2,2.6485218E-2,-5.9081133E-2,1.3785489E-2,4.2326476E-2,-8.725828E-5,-6.462165E-2,-3.885608E-3,2.9398793E-2,-8.842417E-2,-4.1530527E-2],"split_indices":[3,0,4,1,0,2,1,0,1,2,2,0,0,1,2,0,0,0,0,0,0,0,0,0,0,0,0,0,0],"split_type":[0,0,0,0,0,0,0,0,0,0,0,0,0,0,0,0,0,0,0,0,0,0,0,0,0,0,0,0,0],"sum_hessian":[1.392466E4,8.913527E3,5.0111323E3,8.596477E3,3.170507E2,2.0639583E3,2.9471738E3,9.33782E1,8.503099E3,1.6141643E2,1.5563428E2,1.663701E3,4.0025726E2,2.7721316E3,1.7504234E2,5.281723E3,3.2213757E3,1.3854234E2,2.287408E1,9.347044E1,6.216383E1,1.1693541E3,4.9434683E2,2.797317E2,1.2052556E2,2.0891965E3,6.8293506E2,8.982592E1,8.521643E1],"tree_param":{"num_deleted":"0","num_feature":"17","num_nodes":"29","size_leaf_vector":"1"}},{"base_weights":[7.1480195E-3,-9.671753E-1,1.387163E-2,-6.1433494E-2,-8.4758885E-2,3.4595568E-2,-2.8589037E-1,-5.7613082E-2,3.9948694E-2,-7.700783E-1,4.4127885E-2,-1.4870101E-1,-1.1389214E0,-8.865263E-2,-8.2223E-3,9.860635E-3,-1.1729816E-3,-2.6848434E-2,1.7759923E-2,7.953445E-2,-7.76635E-2],"categories":[],"categories_nodes":[],"categories_segments":[],"categories_sizes":[],"default_left":[0,0,0,0,0,0,0,0,0,0,0,0,0,0,0,0,0,0,0,0,0],"id":33,"left_children":[1,3,5,-1,7,9,11,-1,-1,13,15,17,19,-1,-1,-1,-1,-1,-1,-1,-1],"loss_changes":[9.113797E1,2.1896889E1,8.583669E1,0E0,2.2496004E1,9.916054E1,1.0439292E2,0E0,0E0,9.1645386E1,1.3216092E2,1.5100635E2,1.4230638E2,0E0,0E0,0E0,0E0,0E0,0E0,0E0,0E0],"parents":[2147483647,0,0,1,1,2,2,4,4,5,5,6,6,9,9,10,10,11,11,12,12],"right_children":[2,4,6,-1,8,10,12,-1,-1,14,16,18,20,-1,-1,-1,-1,-1,-1,-1,-1],"split_conditions":[-1.1694396E0,1.8552593E0,3.340232E0,-6.1433494E-2,1.2751697E0,-1.6345234E0,5.704637E-1,-5.7613082E-2,3.9948694E-2,-5.9081244E-1,-7.4037504E-1,-2.542362E-1,-1.1510944E0,-8.865263E-2,-8.2223E-3,9.860635E-3,-1.1729816E-3,-2.6848434E-2,1.7759923E-2,7.953445E-2,-7.76635E-2],"split_indices":[0,1,6,0,4,1,1,0,0,2,1,1,0,0,0,0,0,0,0,0,0],"split_type":[0,0,0,0,0,0,0,0,0,0,0,0,0,0,0,0,0,0,0,0,0],"sum_hessian":[1.3909083E4,9.434698E1,1.3814736E4,7.247685E1,2.1870123E1,1.2922246E4,8.9249023E2,9.767563E0,1.210256E1,1.5035307E2,1.2771893E4,7.698525E2,1.2263779E2,5.588144E1,9.4471634E1,3.9111877E3,8.860705E3,4.347786E2,3.3507385E2,1.5788519E1,1.06849266E2],"tree_param":{"num_deleted":"0","num_feature":"17","num_nodes":"21","size_leaf_vector":"1"}},{"base_weights":[6.766748E-3,2.9281583E-2,-2.678973E-1,9.067908E-3,3.7353304E-1,-7.44498E-2,-1.8772805E-1,1.2509608E-1,-5.5023707E-2,4.7331613E-1,-7.351758E-2,-7.99846E-1,-8.817891E-2,4.1141297E-4,2.6353706E-2,-9.553553E-2,-2.082627E-3,5.103646E-2,4.490485E-3,-7.779943E-2,1.8749852E-2,4.4365663E-2,-8.746395E-3],"categories":[],"categories_nodes":[],"categories_segments":[],"categories_sizes":[],"default_left":[0,0,0,0,0,0,0,0,0,0,0,0,0,0,0,0,0,0,0,0,0,0,0],"id":34,"left_children":[1,3,5,7,9,-1,11,13,15,17,-1,19,21,-1,-1,-1,-1,-1,-1,-1,-1,-1,-1],"loss_changes":[8.596814E1,8.940179E1,1.0282493E2,9.0260124E1,1.3179706E2,0E0,6.0223988E1,2.028881E2,1.9392531E2,1.419779E2,0E0,1.2342934E2,7.227008E1,0E0,0E0,0E0,0E0,0E0,0E0,0E0,0E0,0E0,0E0],"parents":[2147483647,0,0,1,1,2,2,3,3,4,4,6,6,7,7,8,8,9,9,11,11,12,12],"right_children":[2,4,6,8,10,-1,12,14,16,18,-1,20,22,-1,-1,-1,-1,-1,-1,-1,-1,-1,-1],"split_conditions":[1.2155224E0,4.850672E0,1.3235937E0,-7.4037504E-1,2.673793E-2,-7.44498E-2,-7.284522E-1,6.56248E-1,-7.143319E-1,9.784731E-1,-7.351758E-2,3.340232E0,1.36991E0,4.1141297E-4,2.6353706E-2,-9.553553E-2,-2.082627E-3,5.103646E-2,4.490485E-3,-7.779943E-2,1.8749852E-2,4.4365663E-2,-8.746395E-3],"split_indices":[2,16,2,1,2,0,0,0,1,1,0,6,2,0,0,0,0,0,0,0,0,0,0],"split_type":[0,0,0,0,0,0,0,0,0,0,0,0,0,0,0,0,0,0,0,0,0,0,0],"sum_hessian":[1.38994E4,1.2847181E4,1.0522191E3,1.213563E4,7.115507E2,6.374307E1,9.884761E2,4.317855E3,7.817775E3,6.7572656E2,3.5824104E1,1.372856E2,8.511904E2,3.3460674E3,9.7178784E2,5.491292E1,7.7628623E3,2.776913E2,3.9803528E2,8.33294E1,5.3956196E1,6.875966E1,7.824308E2],"tree_param":{"num_deleted":"0","num_feature":"17","num_nodes":"23","size_leaf_vector":"1"}},{"base_weights":[6.4125545E-3,-9.5040846E-1,1.2780409E-2,-6.0589172E-2,-8.201747E-2,3.2465387E-2,-2.7283454E-1,7.147297E-1,-6.1754495E-2,-4.8638433E-1,4.6494175E-2,-1.4195879E-1,-1.1061194E0,-4.124948E-2,5.168397E-2,-4.797716E-2,3.0004099E-2,1.4307049E-2,-1.5515328E-5,-2.5691245E-2,1.6959704E-2,7.5058304E-2,-7.56079E-2],"categories":[],"categories_nodes":[],"categories_segments":[],"categories_sizes":[],"default_left":[0,0,0,0,0,0,0,0,0,0,0,0,0,0,0,0,0,0,0,0,0,0,0],"id":35,"left_children":[1,3,5,-1,7,9,11,13,-1,15,17,19,21,-1,-1,-1,-1,-1,-1,-1,-1,-1,-1],"loss_changes":[8.4636185E1,2.0745224E1,7.758643E1,0E0,2.138758E1,9.3987625E1,9.687904E1,7.645786E0,0E0,1.7533144E2,1.4099667E2,1.3797188E2,1.2997748E2,0E0,0E0,0E0,0E0,0E0,0E0,0E0,0E0,0E0,0E0],"parents":[2147483647,0,0,1,1,2,2,4,4,5,5,6,6,7,7,9,9,10,10,11,11,12,12],"right_children":[2,4,6,-1,8,10,12,14,-1,16,18,20,22,-1,-1,-1,-1,-1,-1,-1,-1,-1,-1],"split_conditions":[-1.1694396E0,1.8552593E0,3.340232E0,-6.0589172E-2,1.8813025E0,-1.5303508E0,5.704637E-1,1.2751697E0,-6.1754495E-2,4.955897E0,-1.1223413E0,-2.542362E-1,-1.1510944E0,-4.124948E-2,5.168397E-2,-4.797716E-2,3.0004099E-2,1.4307049E-2,-1.5515328E-5,-2.5691245E-2,1.6959704E-2,7.5058304E-2,-7.56079E-2],"split_indices":[0,1,6,0,1,1,1,4,0,10,1,1,0,0,0,0,0,0,0,0,0,0,0],"split_type":[0,0,0,0,0,0,0,0,0,0,0,0,0,0,0,0,0,0,0,0,0,0,0],"sum_hessian":[1.3887968E4,9.08363E1,1.3797131E4,6.951708E1,2.1319218E1,1.2908355E4,8.887755E2,1.283244E1,8.486777E0,3.3894443E2,1.2569411E4,7.691441E2,1.1963144E2,1.9298012E0,1.0902639E1,2.3619688E2,1.02747536E2,2.0529333E3,1.0516478E4,4.338042E2,3.3533987E2,1.5756636E1,1.038748E2],"tree_param":{"num_deleted":"0","num_feature":"17","num_nodes":"23","size_leaf_vector":"1"}},{"base_weights":[6.073585E-3,-5.1562693E-2,1.0859427E-1,-2.1682678E-2,-8.7200284E-1,9.385077E-2,1.3348615E0,-7.4512206E-2,-5.94993E-3,-1.5655394E0,-1.5664567E-1,1.3620898E-1,-4.786517E-1,-6.0418196E-2,1.4305694E0,-5.190562E-3,7.7345045E-3,-8.09811E-2,-5.8482945E-2,2.475625E-2,-5.623973E-2,-9.093586E-2,7.419001E-3,5.6377994E-3,-6.0425818E-2,7.5394355E-2,-5.7085436E-2],"categories":[],"categories_nodes":[],"categories_segments":[],"categories_sizes":[],"default_left":[0,0,0,0,0,0,0,0,0,0,0,0,0,0,0,0,0,0,0,0,0,0,0,0,0,0,0],"id":36,"left_children":[1,3,5,7,9,11,13,-1,15,17,19,21,23,-1,25,-1,-1,-1,-1,-1,-1,-1,-1,-1,-1,-1,-1],"loss_changes":[8.201021E1,2.1778084E2,9.017617E1,1.9807207E2,1.5463103E2,1.197746E2,1.6153542E1,0E0,1.3337875E2,1.4967651E0,9.822433E1,1.0965153E2,1.4702426E2,0E0,1.3171471E1,0E0,0E0,0E0,0E0,0E0,0E0,0E0,0E0,0E0,0E0,0E0,0E0],"parents":[2147483647,0,0,1,1,2,2,3,3,4,4,5,5,6,6,8,8,9,9,10,10,11,11,12,12,14,14],"right_children":[2,4,6,8,10,12,14,-1,16,18,20,22,24,-1,26,-1,-1,-1,-1,-1,-1,-1,-1,-1,-1,-1,-1],"split_conditions":[1.422179E0,1.3662375E0,4.850672E0,-1.5303508E0,2.5789526E0,1.0045162E0,6.1386895E-1,-7.4512206E-2,6.8331736E-1,9.3762475E-1,-5.290574E-1,-9.9304456E-1,1.2751697E0,-6.0418196E-2,4.181148E-1,-5.190562E-3,7.7345045E-3,-8.09811E-2,-5.8482945E-2,2.475625E-2,-5.623973E-2,-9.093586E-2,7.419001E-3,5.6377994E-3,-6.0425818E-2,7.5394355E-2,-5.7085436E-2],"split_indices":[3,0,16,1,0,1,1,0,1,2,2,0,4,0,0,0,0,0,0,0,0,0,0,0,0,0,0],"split_type":[0,0,0,0,0,0,0,0,0,0,0,0,0,0,0,0,0,0,0,0,0,0,0,0,0,0,0],"sum_hessian":[1.3877126E4,8.883432E3,4.9936943E3,8.572261E3,3.1117096E2,4.935432E3,5.826253E1,8.986811E1,8.482393E3,1.5739171E2,1.5377925E2,4.5961357E3,3.3929608E2,1.6914127E0,5.6571117E1,5.2714175E3,3.2109746E3,1.3575464E2,2.1637077E1,9.219855E1,6.15807E1,2.751928E1,4.5686167E3,1.8789262E2,1.5140346E2,5.5322037E1,1.2490808E0],"tree_param":{"num_deleted":"0","num_feature":"17","num_nodes":"27","size_leaf_vector":"1"}},{"base_weights":[5.7255337E-3,-9.390481E-1,1.1795083E-2,-5.9905846E-2,-8.675501E-2,5.1721726E-3,8.2016337E-1,6.923691E-1,-6.046144E-2,2.7741972E-2,-3.0135787E-1,-7.297584E-1,8.290549E-2,-4.0683493E-2,5.0451454E-2,-2.0043503E-3,8.299067E-3,-7.711021E-2,-6.5958104E-3,-1.0368023E-1,6.7587286E-2],"categories":[],"categories_nodes":[],"categories_segments":[],"categories_sizes":[],"default_left":[0,0,0,0,0,0,0,0,0,0,0,0,0,0,0,0,0,0,0,0,0],"id":37,"left_children":[1,3,5,-1,7,9,11,13,-1,15,17,19,-1,-1,-1,-1,-1,-1,-1,-1,-1],"loss_changes":[7.951691E1,1.9440674E1,7.375609E1,0E0,1.9825409E1,9.455669E1,1.4660925E2,7.236335E0,0E0,1.1937157E2,1.96871E2,1.1463803E2,0E0,0E0,0E0,0E0,0E0,0E0,0E0,0E0,0E0],"parents":[2147483647,0,0,1,1,2,2,4,4,5,5,6,6,7,7,9,9,10,10,11,11],"right_children":[2,4,6,-1,8,10,12,14,-1,16,18,20,-1,-1,-1,-1,-1,-1,-1,-1,-1],"split_conditions":[-1.1694396E0,1.8552593E0,2.0288804E0,-5.9905846E-2,1.8813025E0,1.4906552E0,4.0486016E0,1.2751697E0,-6.046144E-2,3.2739425E-1,1.5774657E0,5.283616E-1,8.290549E-2,-4.0683493E-2,5.0451454E-2,-2.0043503E-3,8.299067E-3,-7.711021E-2,-6.5958104E-3,-1.0368023E-1,6.7587286E-2],"split_indices":[0,1,1,0,1,1,14,4,0,1,1,0,0,0,0,0,0,0,0,0,0],"split_type":[0,0,0,0,0,0,0,0,0,0,0,0,0,0,0,0,0,0,0,0,0],"sum_hessian":[1.3863837E4,8.751628E1,1.377632E4,6.680425E1,2.0712029E1,1.3665367E4,1.10953094E2,1.2452062E1,8.259968E0,1.2729038E4,9.363293E2,3.8980766E1,7.197233E1,1.8906358E0,1.0561426E1,8.539654E3,4.1893843E3,1.1152363E2,8.2480566E2,2.3689995E1,1.5290773E1],"tree_param":{"num_deleted":"0","num_feature":"17","num_nodes":"21","size_leaf_vector":"1"}},{"base_weights":[5.4280274E-3,1.6256565E-1,-3.0308118E-2,-6.738541E-1,2.8857902E-1,-5.8910054E-1,1.8977962E-3,2.3102781E-1,-1.2985786E0,-2.5970588E-2,5.608118E-1,-4.2666876E-1,-9.834685E-2,3.7337273E-1,-4.3842766E-2,-8.551783E-2,3.1095698E-2,-9.095201E-2,-2.487924E-2,5.942415E-3,-1.02112174E-1,3.7092917E-2,3.8917407E-3,4.0974886E-5,-5.02364E-2,2.9368302E-2,-2.0559963E-2,-1.0023937E-2,4.033721E-3],"categories":[],"categories_nodes":[],"categories_segments":[],"categories_sizes":[],"default_left":[0,0,0,0,0,0,0,0,0,0,0,0,0,0,0,0,0,0,0,0,0,0,0,0,0,0,0,0,0],"id":38,"left_children":[1,3,5,7,9,11,13,15,17,19,21,23,-1,25,27,-1,-1,-1,-1,-1,-1,-1,-1,-1,-1,-1,-1,-1,-1],"loss_changes":[7.783956E1,2.7089368E2,2.0324178E2,1.905653E2,1.912048E2,1.3689594E2,1.8146773E2,1.0602368E2,8.216382E1,3.02986E2,1.046022E2,1.3635867E2,0E0,1.9682286E2,1.8548035E2,0E0,0E0,0E0,0E0,0E0,0E0,0E0,0E0,0E0,0E0,0E0,0E0,0E0,0E0],"parents":[2147483647,0,0,1,1,2,2,3,3,4,4,5,5,6,6,7,7,8,8,9,9,10,10,11,11,13,13,14,14],"right_children":[2,4,6,8,10,12,14,16,18,20,22,24,-1,26,28,-1,-1,-1,-1,-1,-1,-1,-1,-1,-1,-1,-1,-1,-1],"split_conditions":[-1.1223413E0,-6.843535E-1,-9.400393E-1,-6.83445E-1,-1.3220055E0,-9.660824E-1,-7.4037504E-1,-1.4435402E0,-1.2959623E0,-1.3480487E0,-9.677214E-2,1.2751697E0,-9.834685E-2,1.641232E0,3.2739425E-1,-8.551783E-2,3.1095698E-2,-9.095201E-2,-2.487924E-2,5.942415E-3,-1.02112174E-1,3.7092917E-2,3.8917407E-3,4.0974886E-5,-5.02364E-2,2.9368302E-2,-2.0559963E-2,-1.0023937E-2,4.033721E-3],"split_indices":[1,0,1,2,1,1,1,1,1,1,2,4,0,9,1,0,0,0,0,0,0,0,0,0,0,0,0,0,0],"split_type":[0,0,0,0,0,0,0,0,0,0,0,0,0,0,0,0,0,0,0,0,0,0,0,0,0,0,0,0,0],"sum_hessian":[1.3859695E4,2.5673022E3,1.1292393E4,3.3557294E2,2.2317292E3,6.144264E2,1.0677967E4,1.3731265E2,1.9826028E2,1.0358119E3,1.1959174E3,5.508025E2,6.3623886E1,1.1698716E3,9.508095E3,2.2447716E1,1.1486494E2,1.19404106E2,7.885617E1,9.672782E2,6.853374E1,8.694598E2,3.264576E2,3.1721396E2,2.3358852E2,9.193647E2,2.505069E2,4.2106772E3,5.2974175E3],"tree_param":{"num_deleted":"0","num_feature":"17","num_nodes":"29","size_leaf_vector":"1"}},{"base_weights":[5.1352577E-3,-9.2829657E-1,1.0916236E-2,-5.926597E-2,-9.108858E-2,3.1627256E-2,-2.431868E-1,6.7317283E-1,-5.9564006E-2,1.2684725E-2,3.562432E-1,-7.247845E-2,-1.6562645E-1,-4.008112E-2,4.9342852E-2,2.9795137E-4,4.5573603E-2,-8.936496E-2,2.1963945E-2,-1.0466627E-2,6.139469E-2],"categories":[],"categories_nodes":[],"categories_segments":[],"categories_sizes":[],"default_left":[0,0,0,0,0,0,0,0,0,0,0,0,0,0,0,0,0,0,0,0,0],"id":39,"left_children":[1,3,5,-1,7,9,11,13,-1,15,17,-1,19,-1,-1,-1,-1,-1,-1,-1,-1],"loss_changes":[7.474488E1,1.8237976E1,7.245124E1,0E0,1.8551453E1,7.826583E1,9.683858E1,6.8492618E0,0E0,7.270395E1,1.2569617E2,0E0,5.9699417E1,0E0,0E0,0E0,0E0,0E0,0E0,0E0,0E0],"parents":[2147483647,0,0,1,1,2,2,4,4,5,5,6,6,7,7,9,9,10,10,12,12],"right_children":[2,4,6,-1,8,10,12,14,-1,16,18,-1,20,-1,-1,-1,-1,-1,-1,-1,-1],"split_conditions":[-1.1694396E0,1.8552593E0,1.2155224E0,-5.926597E-2,1.8813025E0,4.850672E0,1.3235937E0,1.2751697E0,-5.9564006E-2,2.0288804E0,-2.8528854E-2,-7.247845E-2,2.2244997E0,-4.008112E-2,4.9342852E-2,2.9795137E-4,4.5573603E-2,-8.936496E-2,2.1963945E-2,-1.0466627E-2,6.139469E-2],"split_indices":[0,1,2,0,1,16,2,4,0,1,1,0,5,0,0,0,0,0,0,0,0],"split_type":[0,0,0,0,0,0,0,0,0,0,0,0,0,0,0,0,0,0,0,0,0],"sum_hessian":[1.3848645E4,8.4257996E1,1.3764386E4,6.414858E1,2.0109417E1,1.272786E4,1.0365262E3,1.209536E1,8.014057E0,1.2027075E4,7.0078485E2,6.154584E1,9.7498047E2,1.8486012E0,1.0246758E1,1.1938743E4,8.8331955E1,2.5368923E1,6.754159E2,9.461552E2,2.8825228E1],"tree_param":{"num_deleted":"0","num_feature":"17","num_nodes":"21","size_leaf_vector":"1"}},{"base_weights":[4.8653064E-3,-5.0160777E-2,1.02735594E-1,-2.1611668E-2,-8.463213E-1,8.8977E-2,1.2759497E0,-7.1985506E-2,-6.9954656E-3,-1.5214523E0,-1.5974054E-1,1.2944268E-1,-4.625134E-1,-5.738751E-2,1.3680786E0,-3.678046E-3,1.1011055E-2,-7.84862E-2,-5.764238E-2,2.4129108E-2,-5.664962E-2,3.0046407E-2,4.033526E-3,4.9878373E-3,-5.8338303E-2,7.22843E-2,-5.6437146E-2],"categories":[],"categories_nodes":[],"categories_segments":[],"categories_sizes":[],"default_left":[0,0,0,0,0,0,0,0,0,0,0,0,0,0,0,0,0,0,0,0,0,0,0,0,0,0,0],"id":40,"left_children":[1,3,5,7,9,11,13,-1,15,17,19,21,23,-1,25,-1,-1,-1,-1,-1,-1,-1,-1,-1,-1,-1,-1],"loss_changes":[7.452728E1,2.0132892E2,8.027925E1,1.7726389E2,1.418872E2,1.0994071E2,1.4444099E1,0E0,1.2806961E2,9.3911743E-1,9.6281235E1,1.05453354E2,1.3348392E2,0E0,1.2482948E1,0E0,0E0,0E0,0E0,0E0,0E0,0E0,0E0,0E0,0E0,0E0,0E0],"parents":[2147483647,0,0,1,1,2,2,3,3,4,4,5,5,6,6,8,8,9,9,10,10,11,11,12,12,14,14],"right_children":[2,4,6,8,10,12,14,-1,16,18,20,22,24,-1,26,-1,-1,-1,-1,-1,-1,-1,-1,-1,-1,-1,-1],"split_conditions":[1.422179E0,1.3662375E0,4.850672E0,-1.5303508E0,2.5789526E0,1.0045162E0,6.1386895E-1,-7.1985506E-2,2.6376924E-1,9.3762475E-1,-5.457201E-2,-8.3783257E-1,1.2751697E0,-5.738751E-2,4.181148E-1,-3.678046E-3,1.1011055E-2,-7.84862E-2,-5.764238E-2,2.4129108E-2,-5.664962E-2,3.0046407E-2,4.033526E-3,4.9878373E-3,-5.8338303E-2,7.22843E-2,-5.6437146E-2],"split_indices":[3,0,16,1,0,1,1,0,0,2,1,2,4,0,0,0,0,0,0,0,0,0,0,0,0,0,0],"split_type":[0,0,0,0,0,0,0,0,0,0,0,0,0,0,0,0,0,0,0,0,0,0,0,0,0,0,0],"sum_hessian":[1.3836759E4,8.857341E3,4.979418E3,8.551717E3,3.0562445E2,4.922763E3,5.6654705E1,8.624783E1,8.465469E3,1.5348401E2,1.5214044E2,4.58696E3,3.3580347E2,1.6550875E0,5.4999615E1,6.5478765E3,1.9175922E3,1.3283032E2,2.0653694E1,9.195591E1,6.0184525E1,4.2894867E2,4.158011E3,1.8720152E2,1.4860196E2,5.3749924E1,1.2496908E0],"tree_param":{"num_deleted":"0","num_feature":"17","num_nodes":"27","size_leaf_vector":"1"}},{"base_weights":[4.587584E-3,1.5383948E-1,-2.9269382E-2,-6.413503E-1,2.726681E-1,-5.616921E-1,1.4386242E-3,2.2070044E-1,-1.2379408E0,4.5628227E-2,6.24374E-1,-1.6045862E-1,-1.0863144E0,3.5297006E-1,-4.183465E-2,-8.2210824E-2,2.945867E-2,-8.731064E-2,-2.3508186E-2,1.9217348E-2,-2.4551293E-2,5.812586E-2,1.873972E-2,2.273527E-2,-5.5150654E-2,-2.5237504E-2,-9.913464E-2,2.7760878E-2,-1.9361755E-2,-9.032155E-2,-1.5539447E-3],"categories":[],"categories_nodes":[],"categories_segments":[],"categories_sizes":[],"default_left":[0,0,0,0,0,0,0,0,0,0,0,0,0,0,0,0,0,0,0,0,0,0,0,0,0,0,0,0,0,0,0],"id":41,"left_children":[1,3,5,7,9,11,13,15,17,19,21,23,25,27,29,-1,-1,-1,-1,-1,-1,-1,-1,-1,-1,-1,-1,-1,-1,-1,-1],"loss_changes":[6.986241E1,2.4172386E2,1.8424707E2,1.7134494E2,1.776145E2,1.291793E2,1.6210709E2,9.504126E1,7.595386E1,2.4613383E2,1.167699E2,2.030815E2,1.3773709E2,1.7507506E2,1.8003299E2,0E0,0E0,0E0,0E0,0E0,0E0,0E0,0E0,0E0,0E0,0E0,0E0,0E0,0E0,0E0,0E0],"parents":[2147483647,0,0,1,1,2,2,3,3,4,4,5,5,6,6,7,7,8,8,9,9,10,10,11,11,12,12,13,13,14,14],"right_children":[2,4,6,8,10,12,14,16,18,20,22,24,26,28,30,-1,-1,-1,-1,-1,-1,-1,-1,-1,-1,-1,-1,-1,-1,-1,-1],"split_conditions":[-1.1223413E0,-6.843535E-1,-9.400393E-1,-6.83445E-1,-1.2612381E0,6.87573E-1,-7.4037504E-1,-1.4435402E0,-1.2959623E0,6.87573E-1,-1.235195E0,1.2751697E0,1.422179E0,1.641232E0,-7.143319E-1,-8.2210824E-2,2.945867E-2,-8.731064E-2,-2.3508186E-2,1.9217348E-2,-2.4551293E-2,5.812586E-2,1.873972E-2,2.273527E-2,-5.5150654E-2,-2.5237504E-2,-9.913464E-2,2.7760878E-2,-1.9361755E-2,-9.032155E-2,-1.5539447E-3],"split_indices":[1,0,1,2,1,12,1,1,1,12,1,4,3,9,1,0,0,0,0,0,0,0,0,0,0,0,0,0,0,0,0],"split_type":[0,0,0,0,0,0,0,0,0,0,0,0,0,0,0,0,0,0,0,0,0,0,0,0,0,0,0,0,0,0,0],"sum_hessian":[1.3823442E4,2.5553098E3,1.1268133E4,3.3163593E2,2.2236738E3,6.135182E2,1.0654615E4,1.3589821E2,1.9573773E2,1.3520211E3,8.716526E2,3.483808E2,2.6513736E2,1.1670336E3,9.487581E3,2.1849775E1,1.1404843E2,1.17005295E2,7.873244E1,8.29041E2,5.2298016E2,2.7501263E2,5.9663995E2,2.1111371E2,1.3726709E2,1.6175493E2,1.0338242E2,9.1678796E2,2.5024562E2,5.6467907E1,9.431113E3],"tree_param":{"num_deleted":"0","num_feature":"17","num_nodes":"31","size_leaf_vector":"1"}},{"base_weights":[4.3352274E-3,-9.13813E-1,9.806387E-3,-5.8622178E-2,-8.408488E-2,2.7896473E-2,-2.536066E-1,-5.447414E-2,3.6107365E-2,-4.5916468E-2,1.0580067E-1,-1.2738436E-1,-1.0768691E0,-1.1227916E-2,5.3326413E-3,1.3669001E-2,-3.7585087E-3,-2.431642E-2,1.6697196E-2,7.167911E-2,-7.393195E-2],"categories":[],"categories_nodes":[],"categories_segments":[],"categories_sizes":[],"default_left":[0,0,0,0,0,0,0,0,0,0,0,0,0,0,0,0,0,0,0,0,0],"id":42,"left_children":[1,3,5,-1,7,9,11,-1,-1,13,15,17,19,-1,-1,-1,-1,-1,-1,-1,-1],"loss_changes":[6.9396965E1,1.7462463E1,6.544372E1,0E0,1.7423044E1,7.390089E1,9.157431E1,0E0,0E0,1.7989038E2,1.8963684E2,1.2706774E2,1.20323044E2,0E0,0E0,0E0,0E0,0E0,0E0,0E0,0E0],"parents":[2147483647,0,0,1,1,2,2,4,4,5,5,6,6,9,9,10,10,11,11,12,12],"right_children":[2,4,6,-1,8,10,12,-1,-1,14,16,18,20,-1,-1,-1,-1,-1,-1,-1,-1],"split_conditions":[-1.1694396E0,1.8552593E0,3.340232E0,-5.8622178E-2,1.2751697E0,-7.4115224E-2,5.704637E-1,-5.447414E-2,3.6107365E-2,-2.8528854E-2,-2.7159828E-1,-2.542362E-1,-1.1510944E0,-1.1227916E-2,5.3326413E-3,1.3669001E-2,-3.7585087E-3,-2.431642E-2,1.6697196E-2,7.167911E-2,-7.393195E-2],"split_indices":[0,1,6,0,4,0,1,0,0,1,1,1,0,0,0,0,0,0,0,0,0],"split_type":[0,0,0,0,0,0,0,0,0,0,0,0,0,0,0,0,0,0,0,0,0],"sum_hessian":[1.3812132E4,8.08342E1,1.3731298E4,6.131039E1,1.9523811E1,1.2849728E4,8.815707E2,8.532357E0,1.0991455E1,6.5983296E3,6.251398E3,7.65378E2,1.1619267E2,3.039241E3,3.5590884E3,3.2455251E3,3.0058728E3,4.3042477E2,3.3495325E2,1.5675629E1,1.00517044E2],"tree_param":{"num_deleted":"0","num_feature":"17","num_nodes":"21","size_leaf_vector":"1"}},{"base_weights":[4.102882E-3,-4.7952257E-2,9.673371E-2,-2.0695234E-2,-8.208217E-1,8.3562516E-2,1.2400366E0,-6.979474E-2,-7.1366387E-3,-1.4843248E0,-1.5795945E-1,1.453318E-1,-2.4752393E-1,-5.6004222E-2,1.3311739E0,-2.3491757E-3,1.6189836E-2,-7.639916E-2,-5.68238E-2,2.3013502E-2,-5.3644296E-2,3.4381102E-3,4.1778784E-2,1.2010827E-3,-4.6311125E-2,7.040743E-2,-5.4721236E-2],"categories":[],"categories_nodes":[],"categories_segments":[],"categories_sizes":[],"default_left":[0,0,0,0,0,0,0,0,0,0,0,0,0,0,0,0,0,0,0,0,0,0,0,0,0,0,0],"id":43,"left_children":[1,3,5,7,9,11,13,-1,15,17,19,21,23,-1,25,-1,-1,-1,-1,-1,-1,-1,-1,-1,-1,-1,-1],"loss_changes":[6.656317E1,1.8616223E2,7.468527E1,1.5918402E2,1.3216777E2,1.0047095E2,1.364212E1,0E0,1.11514435E2,5.464783E-1,8.630822E1,2.1872087E2,1.423987E2,0E0,1.1781807E1,0E0,0E0,0E0,0E0,0E0,0E0,0E0,0E0,0E0,0E0,0E0,0E0],"parents":[2147483647,0,0,1,1,2,2,3,3,4,4,5,5,6,6,8,8,9,9,10,10,11,11,12,12,14,14],"right_children":[2,4,6,8,10,12,14,-1,16,18,20,22,24,-1,26,-1,-1,-1,-1,-1,-1,-1,-1,-1,-1,-1,-1],"split_conditions":[1.422179E0,1.3662375E0,4.850672E0,-1.5303508E0,2.5789526E0,5.357395E-1,6.1386895E-1,-6.979474E-2,6.827072E-1,9.3762475E-1,-5.290574E-1,3.2739425E-1,-1.7396595E-1,-5.6004222E-2,4.181148E-1,-2.3491757E-3,1.6189836E-2,-7.639916E-2,-5.68238E-2,2.3013502E-2,-5.3644296E-2,3.4381102E-3,4.1778784E-2,1.2010827E-3,-4.6311125E-2,7.040743E-2,-5.4721236E-2],"split_indices":[3,0,16,1,0,1,1,0,0,2,2,1,2,0,0,0,0,0,0,0,0,0,0,0,0,0,0],"split_type":[0,0,0,0,0,0,0,0,0,0,0,0,0,0,0,0,0,0,0,0,0,0,0,0,0,0,0],"sum_hessian":[1.3802354E4,8.83685E3,4.9655044E3,8.536806E3,3.000434E2,4.9100127E3,5.5491722E1,8.235039E1,8.454456E3,1.4932988E2,1.5071353E2,4.138477E3,7.715355E2,1.643409E0,5.3848312E1,7.546641E3,9.078146E2,1.2966322E2,1.966666E1,9.023638E1,6.0477142E1,3.7262222E3,4.122547E2,5.517474E2,2.1978813E2,5.25986E1,1.2497134E0],"tree_param":{"num_deleted":"0","num_feature":"17","num_nodes":"27","size_leaf_vector":"1"}},{"base_weights":[3.8670304E-3,-9.011277E-1,9.06636E-3,-5.803674E-2,-8.105488E-2,3.0599006E-3,7.5200564E-1,6.553209E-1,-5.794573E-2,2.4642685E-2,-2.8980562E-1,-7.263185E-1,7.830724E-2,-3.8486287E-2,4.7788434E-2,-1.2356752E-3,9.641561E-3,-7.364341E-2,-6.4531467E-3,-1.000852E-1,6.427027E-2],"categories":[],"categories_nodes":[],"categories_segments":[],"categories_sizes":[],"default_left":[0,0,0,0,0,0,0,0,0,0,0,0,0,0,0,0,0,0,0,0,0],"id":44,"left_children":[1,3,5,-1,7,9,11,13,-1,15,17,19,-1,-1,-1,-1,-1,-1,-1,-1,-1],"loss_changes":[6.4896545E1,1.6678913E1,6.118888E1,0E0,1.6648504E1,8.599312E1,1.334916E2,6.101346E0,0E0,1.0518654E2,1.7738641E2,1.04527534E2,0E0,0E0,0E0,0E0,0E0,0E0,0E0,0E0,0E0],"parents":[2147483647,0,0,1,1,2,2,4,4,5,5,6,6,7,7,9,9,10,10,11,11],"right_children":[2,4,6,-1,8,10,12,14,-1,16,18,20,-1,-1,-1,-1,-1,-1,-1,-1,-1],"split_conditions":[-1.1694396E0,1.8552593E0,2.0288804E0,-5.803674E-2,1.8813025E0,1.4906552E0,4.0486016E0,1.2751697E0,-5.794573E-2,6.8331736E-1,1.5774657E0,5.283616E-1,7.830724E-2,-3.8486287E-2,4.7788434E-2,-1.2356752E-3,9.641561E-3,-7.364341E-2,-6.4531467E-3,-1.000852E-1,6.427027E-2],"split_indices":[0,1,1,0,1,1,14,4,0,1,1,0,0,0,0,0,0,0,0,0,0],"split_type":[0,0,0,0,0,0,0,0,0,0,0,0,0,0,0,0,0,0,0,0,0],"sum_hessian":[1.3789294E4,7.778468E1,1.3711509E4,5.8765976E1,1.9018707E1,1.360254E4,1.08968666E2,1.153215E1,7.486556E0,1.2669756E4,9.327845E2,3.8737144E1,7.023152E1,1.7360421E0,9.796108E0,9.795922E3,2.8738342E3,1.1060095E2,8.2218353E2,2.3710333E1,1.5026813E1],"tree_param":{"num_deleted":"0","num_feature":"17","num_nodes":"21","size_leaf_vector":"1"}},{"base_weights":[3.6630726E-3,1.485769E-1,-2.9111058E-2,-5.9708816E-1,2.5893733E-1,-5.3228426E-1,-9.2471644E-5,2.2852644E-1,-1.1736234E0,4.38638E-2,5.9217685E-1,-3.792742E-1,-9.188318E-2,3.3566764E-1,-4.1388635E-2,-9.9594384E-2,2.6572509E-2,-8.718411E-2,-2.5587533E-2,1.8381966E-2,-2.3343364E-2,5.5710234E-2,1.754968E-2,3.095667E-4,-4.5101166E-2,4.096023E-2,2.3083389E-3,-8.6798035E-2,-1.5581074E-3],"categories":[],"categories_nodes":[],"categories_segments":[],"categories_sizes":[],"default_left":[0,0,0,0,0,0,0,0,0,0,0,0,0,0,0,0,0,0,0,0,0,0,0,0,0,0,0,0,0],"id":45,"left_children":[1,3,5,7,9,11,13,15,17,19,21,23,-1,25,27,-1,-1,-1,-1,-1,-1,-1,-1,-1,-1,-1,-1,-1,-1],"loss_changes":[6.5476006E1,2.0940718E2,1.6416864E2,1.5645494E2,1.587742E2,1.2175374E2,1.4742345E2,9.237012E1,7.2067535E1,2.2302536E2,1.0902136E2,1.1083187E2,0E0,1.6297089E2,1.640189E2,0E0,0E0,0E0,0E0,0E0,0E0,0E0,0E0,0E0,0E0,0E0,0E0,0E0,0E0],"parents":[2147483647,0,0,1,1,2,2,3,3,4,4,5,5,6,6,7,7,8,8,9,9,10,10,11,11,13,13,14,14],"right_children":[2,4,6,8,10,12,14,16,18,20,22,24,-1,26,28,-1,-1,-1,-1,-1,-1,-1,-1,-1,-1,-1,-1,-1,-1],"split_conditions":[-1.1223413E0,-6.843535E-1,-9.400393E-1,-6.83445E-1,-1.2612381E0,-9.660824E-1,-7.4037504E-1,-8.5327137E-1,-9.677214E-2,6.87573E-1,-1.235195E0,1.2751697E0,-9.188318E-2,6.7473453E-1,-7.143319E-1,-9.9594384E-2,2.6572509E-2,-8.718411E-2,-2.5587533E-2,1.8381966E-2,-2.3343364E-2,5.5710234E-2,1.754968E-2,3.095667E-4,-4.5101166E-2,4.096023E-2,2.3083389E-3,-8.6798035E-2,-1.5581074E-3],"split_indices":[1,0,1,2,1,1,1,2,2,12,1,4,0,13,1,0,0,0,0,0,0,0,0,0,0,0,0,0,0],"split_type":[0,0,0,0,0,0,0,0,0,0,0,0,0,0,0,0,0,0,0,0,0,0,0,0,0,0,0,0,0],"sum_hessian":[1.3784182E4,2.5418083E3,1.1242373E4,3.271262E2,2.2146824E3,6.1206226E2,1.0630311E4,1.3475578E2,1.923704E2,1.34667E3,8.680122E2,5.490016E2,6.306068E1,1.163478E3,9.466833E3,1.5507936E1,1.1924784E2,1.0247562E2,8.989478E1,8.243546E2,5.223154E2,2.731577E2,5.948545E2,3.1656244E2,2.3243912E2,4.3503458E2,7.284434E2,5.5775925E1,9.411057E3],"tree_param":{"num_deleted":"0","num_feature":"17","num_nodes":"29","size_leaf_vector":"1"}},{"base_weights":[3.4580305E-3,2.2607464E-2,-2.3199631E-1,5.0545987E-3,3.245427E-1,-7.0561126E-2,-1.5884328E-1,-1.1309723E-2,3.5088372E-1,4.0900877E-1,-8.326615E-2,-2.0161586E-1,6.1298233E-2,7.2772144E-3,-2.7781182E-3,2.8614217E-2,-7.993295E-2,6.5117427E-3,5.0241154E-2,-4.258064E-3,-3.7806556E-2],"categories":[],"categories_nodes":[],"categories_segments":[],"categories_sizes":[],"default_left":[0,0,0,0,0,0,0,0,0,0,0,0,0,0,0,0,0,0,0,0,0],"id":46,"left_children":[1,3,5,7,9,-1,11,13,15,17,-1,19,-1,-1,-1,-1,-1,-1,-1,-1,-1],"loss_changes":[6.2109604E1,6.751241E1,8.915108E1,6.81417E1,1.183122E2,0E0,5.8097443E1,7.981133E1,2.3572787E2,1.1151522E2,0E0,6.117104E1,0E0,0E0,0E0,0E0,0E0,0E0,0E0,0E0,0E0],"parents":[2147483647,0,0,1,1,2,2,3,3,4,4,6,6,7,7,8,8,9,9,11,11],"right_children":[2,4,6,8,10,-1,12,14,16,18,-1,20,-1,-1,-1,-1,-1,-1,-1,-1,-1],"split_conditions":[1.2155224E0,4.850672E0,1.3235937E0,8.758697E-1,1.641232E0,-7.0561126E-2,2.2244997E0,-1.1223413E0,4.5761E-1,2.6376924E-1,-8.326615E-2,4.181148E-1,6.1298233E-2,7.2772144E-3,-2.7781182E-3,2.8614217E-2,-7.993295E-2,6.5117427E-3,5.0241154E-2,-4.258064E-3,-3.7806556E-2],"split_indices":[2,16,2,2,9,0,5,1,1,0,0,0,0,0,0,0,0,0,0,0,0],"split_type":[0,0,0,0,0,0,0,0,0,0,0,0,0,0,0,0,0,0,0,0,0],"sum_hessian":[1.37729795E4,1.2737913E4,1.0350668E3,1.2039045E4,6.988676E2,5.939112E1,9.7567566E2,1.149603E4,5.4301447E2,6.7117206E2,2.7695545E1,9.4727167E2,2.8403984E1,2.5291477E3,8.966883E3,4.8827032E2,5.4744175E1,4.5806696E2,2.131051E2,7.8381506E2,1.634566E2],"tree_param":{"num_deleted":"0","num_feature":"17","num_nodes":"21","size_leaf_vector":"1"}},{"base_weights":[3.2718962E-3,-8.8961375E-1,8.20882E-3,-5.7498004E-2,-7.835345E-2,2.5169075E-2,-2.3978344E-1,6.429843E-1,-5.706029E-2,-6.4727646E-1,3.2821976E-2,-5.4719734E-1,9.118243E-2,-3.780997E-2,4.6933718E-2,-8.209166E-2,-2.8776664E-3,7.58822E-3,-9.6711575E-4,1.8806795E-2,-4.4201415E-2,1.5349509E-2,-7.463231E-2],"categories":[],"categories_nodes":[],"categories_segments":[],"categories_sizes":[],"default_left":[0,0,0,0,0,0,0,0,0,0,0,0,0,0,0,0,0,0,0,0,0,0,0],"id":47,"left_children":[1,3,5,-1,7,9,11,13,-1,15,17,19,21,-1,-1,-1,-1,-1,-1,-1,-1,-1,-1],"loss_changes":[6.067633E1,1.589608E1,5.7579464E1,0E0,1.5654616E1,6.595923E1,8.920982E1,5.770958E0,0E0,8.449762E1,7.86134E1,1.416754E2,1.4499017E2,0E0,0E0,0E0,0E0,0E0,0E0,0E0,0E0,0E0,0E0],"parents":[2147483647,0,0,1,1,2,2,4,4,5,5,6,6,7,7,9,9,10,10,11,11,12,12],"right_children":[2,4,6,-1,8,10,12,14,-1,16,18,20,22,-1,-1,-1,-1,-1,-1,-1,-1,-1,-1],"split_conditions":[-1.1694396E0,1.8552593E0,3.340232E0,-5.7498004E-2,1.8813025E0,-1.6345234E0,1.641232E0,1.2751697E0,-5.706029E-2,-5.9081244E-1,-7.4037504E-1,-7.505016E-1,3.9684266E-1,-3.780997E-2,4.6933718E-2,-8.209166E-2,-2.8776664E-3,7.58822E-3,-9.6711575E-4,1.8806795E-2,-4.4201415E-2,1.5349509E-2,-7.463231E-2],"split_indices":[0,1,6,0,1,1,9,4,0,2,1,0,1,0,0,0,0,0,0,0,0,0,0],"split_type":[0,0,0,0,0,0,0,0,0,0,0,0,0,0,0,0,0,0,0,0,0,0,0],"sum_hessian":[1.3762055E4,7.4689064E1,1.3687365E4,5.6227325E1,1.8461742E1,1.2812045E4,8.7532056E2,1.1233093E1,7.228648E0,1.4322884E2,1.2668815E4,4.5346832E2,4.2185226E2,1.6880343E0,9.545059E0,5.2650578E1,9.057826E1,3.861685E3,8.807131E3,1.21176956E2,3.3229138E2,3.7197433E2,4.9877934E1],"tree_param":{"num_deleted":"0","num_feature":"17","num_nodes":"23","size_leaf_vector":"1"}},{"base_weights":[3.0760888E-3,-4.5991812E-2,9.042739E-2,-2.0082213E-2,-7.9655886E-1,2.3535204E-1,-1.0394387E-2,-6.8076074E-2,-7.409002E-3,-1.4490218E0,-1.5725185E-1,3.8378346E-1,-3.755897E-1,6.0402296E-2,-1.1909602E0,-4.8704324E-3,7.0292614E-3,-7.44238E-2,-5.5797745E-2,2.2131769E-2,-5.3368844E-2,1.1064074E-2,3.8579743E-2,-1.9623896E-5,-6.271821E-2,-4.7963606E-3,2.6826128E-2,-2.1937665E-2,-7.43538E-2],"categories":[],"categories_nodes":[],"categories_segments":[],"categories_sizes":[],"default_left":[0,0,0,0,0,0,0,0,0,0,0,0,0,0,0,0,0,0,0,0,0,0,0,0,0,0,0,0,0],"id":48,"left_children":[1,3,5,7,9,11,13,-1,15,17,19,21,23,25,27,-1,-1,-1,-1,-1,-1,-1,-1,-1,-1,-1,-1,-1,-1],"loss_changes":[5.8953304E1,1.712564E2,7.2289215E1,1.4473651E2,1.2234566E2,1.842061E2,2.4400063E2,0E0,1.12371765E2,2.4841309E-1,8.211989E1,1.02771545E2,1.3097768E2,2.0506126E2,3.6136337E1,0E0,0E0,0E0,0E0,0E0,0E0,0E0,0E0,0E0,0E0,0E0,0E0,0E0,0E0],"parents":[2147483647,0,0,1,1,2,2,3,3,4,4,5,5,6,6,8,8,9,9,10,10,11,11,12,12,13,13,14,14],"right_children":[2,4,6,8,10,12,14,-1,16,18,20,22,24,26,28,-1,-1,-1,-1,-1,-1,-1,-1,-1,-1,-1,-1,-1,-1],"split_conditions":[1.422179E0,1.3662375E0,1.2751697E0,-1.5303508E0,2.5789526E0,1.1937048E-1,9.5242995E-1,-6.8076074E-2,6.8331736E-1,9.3762475E-1,-5.457201E-2,5.945097E-1,2.1085078E-1,2.8398898E-1,-7.1963245E-1,-4.8704324E-3,7.0292614E-3,-7.44238E-2,-5.5797745E-2,2.2131769E-2,-5.3368844E-2,1.1064074E-2,3.8579743E-2,-1.9623896E-5,-6.271821E-2,-4.7963606E-3,2.6826128E-2,-2.1937665E-2,-7.43538E-2],"split_indices":[3,0,4,1,0,2,1,0,1,2,1,0,0,1,0,0,0,0,0,0,0,0,0,0,0,0,0,0,0],"split_type":[0,0,0,0,0,0,0,0,0,0,0,0,0,0,0,0,0,0,0,0,0,0,0,0,0,0,0,0,0],"sum_hessian":[1.3752418E4,8.806187E3,4.9462314E3,8.513333E3,2.9285376E2,2.0287306E3,2.9175007E3,7.8680626E1,8.434652E3,1.4430878E2,1.4854498E2,1.6324824E3,3.962481E2,2.7533362E3,1.6416444E2,5.245221E3,3.1894314E3,1.2592331E2,1.8385468E1,8.984165E1,5.8703335E1,1.1515337E3,4.809488E2,2.7838898E2,1.1785914E2,2.0733652E3,6.79971E2,4.7071922E1,1.1709252E2],"tree_param":{"num_deleted":"0","num_feature":"17","num_nodes":"29","size_leaf_vector":"1"}},{"base_weights":[2.8812191E-3,-8.822046E-1,7.60484E-3,-5.701515E-2,-8.445359E-2,1.9189465E-3,7.202156E-1,6.231331E-1,-5.61737E-2,2.228268E-2,-2.7433395E-1,-7.1468353E-1,7.576694E-2,-3.73446E-2,4.5882337E-2,-2.0080234E-3,7.469669E-3,-7.026535E-2,-6.089372E-3,-9.53741E-2,6.0602613E-2],"categories":[],"categories_nodes":[],"categories_segments":[],"categories_sizes":[],"default_left":[0,0,0,0,0,0,0,0,0,0,0,0,0,0,0,0,0,0,0,0,0],"id":49,"left_children":[1,3,5,-1,7,9,11,13,-1,15,17,19,-1,-1,-1,-1,-1,-1,-1,-1,-1],"loss_changes":[5.742892E1,1.491787E1,5.5357906E1,0E0,1.4599033E1,7.6263916E1,1.24472824E2,5.4826794E0,0E0,1.0022038E2,1.6040152E2,9.249491E1,0E0,0E0,0E0,0E0,0E0,0E0,0E0,0E0,0E0],"parents":[2147483647,0,0,1,1,2,2,4,4,5,5,6,6,7,7,9,9,10,10,11,11],"right_children":[2,4,6,-1,8,10,12,14,-1,16,18,20,-1,-1,-1,-1,-1,-1,-1,-1,-1],"split_conditions":[-1.1694396E0,1.8552593E0,2.0288804E0,-5.701515E-2,1.8813025E0,1.4906552E0,4.0486016E0,1.2751697E0,-5.61737E-2,3.2739425E-1,1.5774657E0,5.283616E-1,7.576694E-2,-3.73446E-2,4.5882337E-2,-2.0080234E-3,7.469669E-3,-7.026535E-2,-6.089372E-3,-9.53741E-2,6.0602613E-2],"split_indices":[0,1,1,0,1,1,14,4,0,1,1,0,0,0,0,0,0,0,0,0,0],"split_type":[0,0,0,0,0,0,0,0,0,0,0,0,0,0,0,0,0,0,0,0,0],"sum_hessian":[1.373371E4,7.19203E1,1.366179E4,5.4015217E1,1.7905083E1,1.3554641E4,1.07149254E2,1.0889475E1,7.015609E0,1.2624925E4,9.2971564E2,3.824056E1,6.890869E1,1.6549449E0,9.2345295E0,8.46646E3,4.1584653E3,1.0952081E2,8.201948E2,2.3624907E1,1.4615651E1],"tree_param":{"num_deleted":"0","num_feature":"17","num_nodes":"21","size_leaf_vector":"1"}},{"base_weights":[2.7260152E-3,-8.7327814E-1,7.2260136E-3,-5.6539427E-2,-8.52565E-2,7.924693E-2,-4.568373E-2,6.086767E-1,-5.5386897E-2,-3.743772E-2,3.0226266E-1,-6.62991E-2,7.235266E-2,-3.676509E-2,4.49954E-2,1.5286565E-2,-8.41302E-3,4.5035067E-3,3.6638066E-2,-2.1453442E-3,-6.275264E-2],"categories":[],"categories_nodes":[],"categories_segments":[],"categories_sizes":[],"default_left":[0,0,0,0,0,0,0,0,0,0,0,0,0,0,0,0,0,0,0,0,0],"id":50,"left_children":[1,3,5,-1,7,9,11,13,-1,15,17,19,-1,-1,-1,-1,-1,-1,-1,-1,-1],"loss_changes":[5.412856E1,1.4143982E1,5.2058067E1,0E0,1.3705292E1,1.5057036E2,2.4245686E2,5.196536E0,0E0,1.7061642E2,1.8148613E2,2.1599306E2,0E0,0E0,0E0,0E0,0E0,0E0,0E0,0E0,0E0],"parents":[2147483647,0,0,1,1,2,2,4,4,5,5,6,6,7,7,9,9,10,10,11,11],"right_children":[2,4,6,-1,8,10,12,14,-1,16,18,20,-1,-1,-1,-1,-1,-1,-1,-1,-1],"split_conditions":[-1.1694396E0,1.8552593E0,-5.1361865E-1,-5.6539427E-2,1.8813025E0,-7.143225E-1,2.2244997E0,1.2751697E0,-5.5386897E-2,-7.505016E-1,4.635365E-1,1.1607752E0,7.235266E-2,-3.676509E-2,4.49954E-2,1.5286565E-2,-8.41302E-3,4.5035067E-3,3.6638066E-2,-2.1453442E-3,-6.275264E-2],"split_indices":[0,1,2,0,1,2,5,4,0,0,0,1,0,0,0,0,0,0,0,0,0],"split_type":[0,0,0,0,0,0,0,0,0,0,0,0,0,0,0,0,0,0,0,0,0],"sum_hessian":[1.3728581E4,6.917607E1,1.3659404E4,5.1810436E1,1.7365633E1,5.784723E3,7.8746816E3,1.0585928E1,6.779705E0,3.7982583E3,1.9864647E3,7.7683525E3,1.0632887E2,1.6137887E0,8.972139E0,1.047958E3,2.7503003E3,1.3314185E3,6.5504614E2,7.6194536E3,1.48899E2],"tree_param":{"num_deleted":"0","num_feature":"17","num_nodes":"21","size_leaf_vector":"1"}},{"base_weights":[2.5899964E-3,-4.3995444E-2,8.5598946E-2,-1.9111503E-2,-7.7833E-1,7.34623E-2,1.1760217E0,-6.683497E-2,-7.046137E-3,-7.0905924E-2,-1.6230185E-1,1.300679E-1,-2.3316959E-1,1.2639638E0,-5.8130454E-2,-4.6349443E-3,6.705721E-3,9.668112E-3,-8.2614474E-2,2.5052621E-3,3.4938566E-2,1.127742E-3,-4.4159498E-2,-5.12707E-2,6.726314E-2],"categories":[],"categories_nodes":[],"categories_segments":[],"categories_sizes":[],"default_left":[0,0,0,0,0,0,0,0,0,0,0,0,0,0,0,0,0,0,0,0,0,0,0,0,0],"id":51,"left_children":[1,3,5,7,9,11,13,-1,15,-1,17,19,21,23,-1,-1,-1,-1,-1,-1,-1,-1,-1,-1,-1],"loss_changes":[5.301911E1,1.6046146E2,6.5138565E1,1.3504152E2,1.1320538E2,8.465269E1,1.2613518E1,0E0,1.0180712E2,0E0,7.862222E1,1.8715204E2,1.26371574E2,1.1188347E1,0E0,0E0,0E0,0E0,0E0,0E0,0E0,0E0,0E0,0E0,0E0],"parents":[2147483647,0,0,1,1,2,2,3,3,4,4,5,5,6,6,8,8,10,10,11,11,12,12,13,13],"right_children":[2,4,6,8,10,12,14,-1,16,-1,18,20,22,24,-1,-1,-1,-1,-1,-1,-1,-1,-1,-1,-1],"split_conditions":[1.422179E0,1.3662375E0,4.850672E0,-1.5303508E0,2.5789526E0,5.357395E-1,4.181148E-1,-6.683497E-2,6.8331736E-1,-7.0905924E-2,9.677078E-1,2.8398898E-1,-1.7396595E-1,6.1386895E-1,-5.8130454E-2,-4.6349443E-3,6.705721E-3,9.668112E-3,-8.2614474E-2,2.5052621E-3,3.4938566E-2,1.127742E-3,-4.4159498E-2,-5.12707E-2,6.726314E-2],"split_indices":[3,0,16,1,0,1,0,0,1,0,8,1,2,1,0,0,0,0,0,0,0,0,0,0,0],"split_type":[0,0,0,0,0,0,0,0,0,0,0,0,0,0,0,0,0,0,0,0,0,0,0,0,0],"sum_hessian":[1.3708654E4,8.78109E3,4.9275645E3,8.494275E3,2.8681424E2,4.874379E3,5.318552E1,7.608143E1,8.418194E3,1.4005513E2,1.467591E2,4.1152593E3,7.591193E2,5.1700882E1,1.4846383E0,5.2393994E3,3.1787952E3,1.19180595E2,2.7578506E1,3.6089153E3,5.0634424E2,5.454853E2,2.13634E2,1.3747594E0,5.0326122E1],"tree_param":{"num_deleted":"0","num_feature":"17","num_nodes":"25","size_leaf_vector":"1"}},{"base_weights":[2.4275128E-3,1.3472335E-1,-2.7385928E-2,-5.700984E-1,2.3808122E-1,-5.036305E-1,1.2956237E-4,2.1885113E-1,-1.1243876E0,3.0318959E-2,5.587623E-1,-6.155267E-1,1.2183908E0,3.1848374E-1,-3.911121E-2,-9.732058E-2,2.5427857E-2,-8.1720166E-2,-1.964353E-2,1.6897382E-2,-2.252466E-2,5.3037774E-2,1.6400388E-2,-1.0396193E-2,-5.8171477E-2,8.411234E-2,-8.024414E-2,2.5398342E-2,-1.8633451E-2,-8.3412915E-2,-1.4693592E-3],"categories":[],"categories_nodes":[],"categories_segments":[],"categories_sizes":[],"default_left":[0,0,0,0,0,0,0,0,0,0,0,0,0,0,0,0,0,0,0,0,0,0,0,0,0,0,0,0,0,0,0],"id":52,"left_children":[1,3,5,7,9,11,13,15,17,19,21,23,25,27,29,-1,-1,-1,-1,-1,-1,-1,-1,-1,-1,-1,-1,-1,-1,-1,-1],"loss_changes":[5.4021584E1,1.8363553E2,1.4647298E2,1.4124995E2,1.4639069E2,1.18390594E2,1.320342E2,8.497847E1,7.007472E1,1.9755125E2,9.9723694E1,1.27933914E2,5.1923084E1,1.5207922E2,1.4901201E2,0E0,0E0,0E0,0E0,0E0,0E0,0E0,0E0,0E0,0E0,0E0,0E0,0E0,0E0,0E0,0E0],"parents":[2147483647,0,0,1,1,2,2,3,3,4,4,5,5,6,6,7,7,8,8,9,9,10,10,11,11,12,12,13,13,14,14],"right_children":[2,4,6,8,10,12,14,16,18,20,22,24,26,28,30,-1,-1,-1,-1,-1,-1,-1,-1,-1,-1,-1,-1,-1,-1,-1,-1],"split_conditions":[-1.1223413E0,-6.843535E-1,-9.400393E-1,-6.83445E-1,-1.2612381E0,4.0486016E0,-7.4037504E-1,6.87573E-1,-1.2959623E0,6.87573E-1,-1.235195E0,6.87573E-1,9.677078E-1,1.641232E0,-7.143319E-1,-9.732058E-2,2.5427857E-2,-8.1720166E-2,-1.964353E-2,1.6897382E-2,-2.252466E-2,5.3037774E-2,1.6400388E-2,-1.0396193E-2,-5.8171477E-2,8.411234E-2,-8.024414E-2,2.5398342E-2,-1.8633451E-2,-8.3412915E-2,-1.4693592E-3],"split_indices":[1,0,1,2,1,14,1,12,1,12,1,12,8,9,1,0,0,0,0,0,0,0,0,0,0,0,0,0,0,0,0],"split_type":[0,0,0,0,0,0,0,0,0,0,0,0,0,0,0,0,0,0,0,0,0,0,0,0,0,0,0,0,0,0,0],"sum_hessian":[1.3694547E4,2.5179104E3,1.1176637E4,3.2143738E2,2.1964731E3,6.0952527E2,1.0567111E4,1.3289128E2,1.885461E2,1.3335742E3,8.628989E2,5.7293854E2,3.6586727E1,1.1588037E3,9.408308E3,1.5007399E1,1.1788388E2,1.1036502E2,7.818107E1,8.134302E2,5.2014404E2,2.7060867E2,5.922903E2,3.293235E2,2.4361505E2,3.1770994E1,4.815735E0,9.096763E2,2.491274E2,5.4810963E1,9.353496E3],"tree_param":{"num_deleted":"0","num_feature":"17","num_nodes":"31","size_leaf_vector":"1"}},{"base_weights":[2.2857774E-3,1.2446157E-2,-3.6574382E-1,-3.9704446E-2,9.90306E-2,-7.264097E-2,-1.5464371E-1,-6.4068297E-3,-7.895831E-1,2.79644E-1,-1.1756798E-1,-5.155408E-1,6.176955E-1,-1.5126986E-3,5.3343635E-2,-9.450296E-2,-1.6663833E-2,7.061504E-2,1.2210856E-2,-4.89031E-2,2.329973E-3,-1.0820482E-2,-7.393923E-2,6.0224492E-2,-7.26867E-2],"categories":[],"categories_nodes":[],"categories_segments":[],"categories_sizes":[],"default_left":[0,0,0,0,0,0,0,0,0,0,0,0,0,0,0,0,0,0,0,0,0,0,0,0,0],"id":53,"left_children":[1,3,5,7,9,-1,11,13,15,17,19,21,23,-1,-1,-1,-1,-1,-1,-1,-1,-1,-1,-1,-1],"loss_changes":[5.116676E1,6.0129612E1,8.413667E1,2.0751303E2,1.958562E2,0E0,8.6435486E1,2.037306E2,1.7680235E2,1.0919452E2,3.216749E2,6.0508312E1,1.2189995E2,0E0,0E0,0E0,0E0,0E0,0E0,0E0,0E0,0E0,0E0,0E0,0E0],"parents":[2147483647,0,0,1,1,2,2,3,3,4,4,6,6,7,7,8,8,9,9,10,10,11,11,12,12],"right_children":[2,4,6,8,10,-1,12,14,16,18,20,22,24,-1,-1,-1,-1,-1,-1,-1,-1,-1,-1,-1,-1],"split_conditions":[2.2344806E0,3.2739425E-1,6.87573E-1,1.8849742E-1,1.0652837E0,-7.264097E-2,1.2751697E0,2.2244997E0,9.677078E-1,3.360753E-1,1.2475857E0,8.737433E-2,4.228858E-1,-1.5126986E-3,5.3343635E-2,-9.450296E-2,-1.6663833E-2,7.061504E-2,1.2210856E-2,-4.89031E-2,2.329973E-3,-1.0820482E-2,-7.393923E-2,6.0224492E-2,-7.26867E-2],"split_indices":[2,1,12,1,1,0,4,5,8,1,1,0,1,0,0,0,0,0,0,0,0,0,0,0,0],"split_type":[0,0,0,0,0,0,0,0,0,0,0,0,0,0,0,0,0,0,0,0,0,0,0,0,0],"sum_hessian":[1.368122E4,1.3314603E4,3.666168E2,8.309972E3,5.004631E3,5.8660107E1,3.079567E2,7.95763E3,3.523421E2,2.7288523E3,2.2757786E3,2.101096E2,9.784709E1,7.7856133E3,1.7201631E2,1.0235355E2,2.4998856E2,8.15848E1,2.6472676E3,3.6382245E2,1.911956E3,1.612567E2,4.88529E1,7.65738E1,2.1273294E1],"tree_param":{"num_deleted":"0","num_feature":"17","num_nodes":"25","size_leaf_vector":"1"}},{"base_weights":[2.149363E-3,-8.652516E-1,6.437567E-3,-5.606274E-2,-9.2832185E-2,1.1159929E-3,6.8450207E-1,5.897464E-1,-5.46976E-2,1.3013197E-2,-4.627898E-1,-6.890191E-1,7.2935894E-2,-3.6293555E-2,4.398518E-2,1.1903453E-4,5.404314E-2,4.111731E-2,-6.0266256E-2,-9.161175E-2,5.8751274E-2],"categories":[],"categories_nodes":[],"categories_segments":[],"categories_sizes":[],"default_left":[0,0,0,0,0,0,0,0,0,0,0,0,0,0,0,0,0,0,0,0,0],"id":54,"left_children":[1,3,5,-1,7,9,11,13,-1,15,17,19,-1,-1,-1,-1,-1,-1,-1,-1,-1],"loss_changes":[5.0861362E1,1.3197544E1,4.9095245E1,0E0,1.2832628E1,7.452155E1,1.1367284E2,4.931795E0,0E0,1.494669E2,3.2316577E2,8.498966E1,0E0,0E0,0E0,0E0,0E0,0E0,0E0,0E0,0E0],"parents":[2147483647,0,0,1,1,2,2,4,4,5,5,6,6,7,7,9,9,10,10,11,11],"right_children":[2,4,6,-1,8,10,12,14,-1,16,18,20,-1,-1,-1,-1,-1,-1,-1,-1,-1],"split_conditions":[-1.1694396E0,1.8552593E0,2.0288804E0,-5.606274E-2,1.8813025E0,1.7597678E0,4.0486016E0,1.2751697E0,-5.46976E-2,1.7424057E0,-9.401261E-1,5.283616E-1,7.2935894E-2,-3.6293555E-2,4.398518E-2,1.1903453E-4,5.404314E-2,4.111731E-2,-6.0266256E-2,-9.161175E-2,5.8751274E-2],"split_indices":[0,1,1,0,1,1,14,4,0,1,0,0,0,0,0,0,0,0,0,0,0],"split_type":[0,0,0,0,0,0,0,0,0,0,0,0,0,0,0,0,0,0,0,0,0],"sum_hessian":[1.367141E4,6.626769E1,1.3605143E4,4.9432617E1,1.6835077E1,1.3500192E4,1.04950325E2,1.0254392E1,6.580686E0,1.3163574E4,3.3661755E2,3.787214E1,6.7078186E1,1.5803816E0,8.67401E0,1.303479E4,1.287843E2,1.2323034E2,2.1338722E2,2.348555E1,1.438659E1],"tree_param":{"num_deleted":"0","num_feature":"17","num_nodes":"21","size_leaf_vector":"1"}},{"base_weights":[2.0413848E-3,-2.296813E-2,1.4661509E-1,-1.4660782E-3,-3.904795E-1,-2.7491838E-1,4.0689987E-1,-2.0050162E-2,2.7043435E-1,-9.3692875E-1,1.3635936E-1,-1.2799779E-1,-1.4440885E0,-8.3356924E-2,4.5506638E-1,-1.3515913E-3,4.2991783E-2,2.0538768E-2,-7.24498E-2,-2.71581E-2,-7.717105E-2,2.2917956E-2,-5.20141E-2,2.5111035E-2,-2.236292E-2,-1.0297152E-1,-2.4630193E-2,3.5390478E-2,7.961108E-3],"categories":[],"categories_nodes":[],"categories_segments":[],"categories_sizes":[],"default_left":[0,0,0,0,0,0,0,0,0,0,0,0,0,0,0,0,0,0,0,0,0,0,0,0,0,0,0,0,0],"id":55,"left_children":[1,3,5,7,9,11,13,15,17,19,21,23,25,-1,27,-1,-1,-1,-1,-1,-1,-1,-1,-1,-1,-1,-1,-1,-1],"loss_changes":[4.941712E1,9.2074615E1,2.2126123E2,5.5632824E1,1.8553741E2,1.3209146E2,1.25287766E2,